tree
version=v4
num_class=1
num_tree_per_iteration=1
label_index=0
max_feature_idx=7
objective=regression
feature_names=Column_0 Column_1 Column_2 Column_3 Column_4 Column_5 Column_6 Column_7
feature_infos=[68.945000000000007:625.6840000000002] [0:189] [-13.938699999999995:9.4309999999999992] [45.040999999999997:509.77199999999999] [0:189.52999999999997] [-5.3955999999999928:6.3325000000000067] [0.035999999999999997:0.95599999999999996] -1:2:4:5:3:0
tree_sizes=2618 2672 2672 2674 2638 2664 2664 2685 2673 2688 2710 2700 2705 2701 2656 2662 2686 2726 2684 2701 2706 2682 2666 2721 2719 2682 2681 2659 2677 2687 2714 2692 2696 2698 2691 2709 2689 2719 2697 2689 2700 2710 2725 2705 2707 2685 2699 2724 2711 2730 2688 2697 2697 2685 2716 2706 2716 2714 2725 2682 2708 2709 2698 2694 2738 2689 2726 2713 2693 2736 2680 2745 2731 2725 2724 2697 2735 2708 2719 2708 2691 2704 2713 2737 2682 2670 2682 2674 2724 2690 2678 2694 2714 2723 2721 2744 2744 2695 2757 2734 2751 2673 2706 2732 2672 2687 2746 2730 2705 2707 2719 2714 2682 2696 2711 2695 2730 2720 2705 2703 2704 2717 2680 2705 2699 2726 2705 2721 2713 2696 2707 2733 2740 2697 2723 2697 2671 2691 2736 2658 2727 2662 2712 2705 2715 2712 2722 2727 2723 2750 2729 2666 2727 2713 2725 2707 2692 2715 2721 2745 2762 2673 2694 2744 2677 2734 2722 2714 2701 2745 2700 2703 2757 2708 2733 2696 2689 2733 2742 2704 2719 2688 2763 2704 2737 2738 2697 2712 2722 2717 2711 2737 2729 2713 2753 2703 2726 2712 2703 2727 2721 2721 2739 2696 2700 2765 2725 2728 2700 2709 2705 2719 2729 2763 2708 2719 2718 2733 2707 2718 2753 2696 2683 2755 2712 2733 2716 2732 2750 2732 2740 2708 2720 2731 2724 2725 2735 2756 2768 2704 2751 2718 2700 2743 2746 2690 2728 2710 2724 2744 2782 2722 2727 2748 2751 2731 2740 2733 2736 2734 2755 2732 2720 2738 2737 2739 2743 2736 2675 2747 2678 2743 2705 2751 2743 2780 2721 2690 2741 2715 2719 2731 2755 2727 2723 2752 2752 2753 2762 2761 2717 2785 2736 2707 2745 2727 2707 2750 2740 2716 2697 2733 2757 2704 2738 2728 2743 2696 2735 2706 2751 2751 2742 2763 2751 2742 2747 2716 2788 2735 2735 2742 2742 2741 2746 2743 2726 2760 2757 2728 2697 2724 2727 2700 2724 2732 2737 2728 2711 2706 2729 2717 2764 2768 2744 2733 2766 2724 2751 2717 2750 2727 2732 2709 2721 2732 2708 2739 2677 2725 2693 2745 2723 2732 2733 2737 2762 2731 2738 2730 2722 2745 2719 2743 2737 2742 2752 2726 2706 2762 2730 2728 2708 2759 2761 2759 2758 2760 2727 2743 2740 2760 2725 2723 2741 2751 2731 2729 2739 2757 2735 2743 2762 2786 2761 2762 2782 2749 2740 2760 2766 2757 2713 2762 2737 2759 2763 2748 2742 2787 2747 2732 2778 2748 2763 2737 2748 2721 2732 2724 2765 2765 2741 2755 2738 2730 2754 2728 2731 2741 2759 2736 2736 2769 2731 2729 2722 2717 2723 2746 2732 2719 2719 2761 2755 2748 2769 2739 2746 2766 2735 2766 2742 2732 2705 2740 2743 2704 2715 2741 2749 2736 2724 2729 2772 2706 2750 2732 2731 2710 2721 2769 2746 2704 2737 2734 2750 2750 2765 2742 2720 2728 2742 2748 2764 2756 2736 2747 2781 2764

Tree=0
num_leaves=31
num_cat=0
split_feature=6 5 0 1 0 4 5 0 0 0 5 4 1 1 2 2 2 1 1 0 6 4 1 0 4 6 2 2 6 6
split_gain=242540 131916 97661.1 61056.7 36373.4 35793.2 30403.4 30354.4 24540.3 25271.1 22611.4 21810 58395.1 42820.5 28929.6 35774.7 35140.9 20089 23934.1 19064.6 18986.5 17524.1 17321.3 16295.5 14119.1 12803.2 12136.7 11782.3 10134.4 8855.31
threshold=0.67400000000000015 3.0894500000000016 140.62150000000003 68.915000000000006 201.81150000000002 6.3449999999999998 -0.9860000000000001 353.24500000000006 109.85600000000001 137.96100000000001 3.2100500000000016 38.880000000000003 1.0000000180025095e-35 18.650000000000002 -3.5294499999999975 1.83525 -3.1007099999999994 38.715000000000003 40.295000000000009 201.81150000000002 0.60025000000000006 105.76500000000003 18.650000000000002 274.21249999999992 71.855000000000004 0.33315000000000006 2.9486100000000017 3.7236000000000034 0.24950000000000003 0.39735000000000004
decision_type=2 2 2 2 2 2 2 2 2 2 2 2 2 2 2 2 2 2 2 2 2 2 2 2 2 2 2 2 2 2
left_child=1 3 8 5 -5 -1 7 29 -2 -10 22 12 -8 -14 -13 16 28 27 -19 -12 23 -11 24 -3 -4 -18 -21 -15 -16 -7
right_child=2 20 10 4 -6 6 11 -9 9 21 19 14 13 17 15 -17 25 18 -20 26 -22 -23 -24 -25 -26 -27 -28 -29 -30 -31
leaf_value=1.6126722815580923 4.3235559939155808 1.3689640095646209 -0.75159974722469047 3.3252237137894691 0.96020839533993452 0.78077483614242049 2.4261187233447981 2.0458529888293082 1.5868248591300034 3.2253127314337053 1.3139638242494898 1.3883823074525017 -2.0411612809397344 0.41505430313436831 0.7027281660490321 0.86928112109668287 -2.7776105430137967 -1.8647556574129345 0.43592320592905776 3.3874190077202244 2.8084102415148426 1.6805549004974403 1.4890620283302389 2.2291611195170482 1.0818918485743243 -1.2392679558494755 1.914315651084791 1.5786499419162727 -0.51588055229857432 0.168325576949651
leaf_weight=58 29 394 21 29 37 142 31 38 37 146 55 23 21 112 22 39 21 20 26 27 29 21 60 64 21 38 29 27 76 101
leaf_count=58 29 394 21 29 37 142 31 38 37 146 55 23 21 112 22 39 21 20 26 27 29 21 60 64 21 38 29 27 76 101
internal_value=1.24446 0.910051 2.25517 0.538057 1.99938 0.41674 0.322623 0.73172 2.96259 2.76912 1.48133 0.0705256 0.402927 0.0984667 -0.289197 -0.486056 -0.822732 0.341343 -0.564372 1.97517 1.56772 3.03106 0.94392 1.48917 0.165146 -1.78681 2.62456 0.641076 -0.242315 0.526218
internal_weight=1794 1348 446 861 66 795 737 281 233 204 213 456 237 206 219 196 157 185 46 111 487 167 102 458 42 59 56 139 98 243
internal_count=1794 1348 446 861 66 795 737 281 233 204 213 456 237 206 219 196 157 185 46 111 487 167 102 458 42 59 56 139 98 243
is_linear=0
shrinkage=1


Tree=1
num_leaves=31
num_cat=1
split_feature=6 5 0 1 0 7 2 4 5 3 0 0 2 0 2 0 0 5 6 4 6 2 0 4 1 4 2 5 6 6
split_gain=218893 119054 88139.2 55103.7 32827 32544.1 75699.1 29986.5 29983.1 28764.8 26974.9 25845.8 28432.7 28348.6 23437.4 22147.6 22807.2 20406.8 19652.3 20897.8 17364.7 19541.4 17205.8 15815.5 15632.5 12742.5 10953.4 10181.6 9791.19 9222.42
threshold=0.67400000000000015 3.0894500000000016 140.62150000000003 68.915000000000006 201.81150000000002 0 2.4355000000000007 38.880000000000003 -0.9860000000000001 151.65550000000002 353.24500000000006 137.96100000000001 1.83525 152.94500000000002 -1.5303999999999973 109.85600000000001 137.96100000000001 3.2100500000000016 0.50855000000000017 6.3449999999999998 0.50340000000000018 -0.35489999999999838 201.81150000000002 105.76500000000003 18.650000000000002 71.855000000000004 2.9486100000000017 2.4166000000000007 0.40435000000000004 0.24950000000000003
decision_type=2 2 2 2 2 9 2 2 2 2 2 2 2 2 2 2 2 2 2 2 2 2 2 2 2 2 2 2 2 2
left_child=1 3 15 5 -5 6 9 14 10 -1 28 -10 13 29 18 -2 -17 24 19 -7 21 -3 -19 -18 25 -4 -24 -8 -9 -13
right_child=2 20 17 4 -6 7 27 8 11 -11 -12 12 -14 -15 -16 16 23 22 -20 -21 -22 -23 26 -25 -26 -27 -28 -29 -30 -31
leaf_value=-3.7806944334829176 2.9251441938096079 -0.29315809486465327 -1.8962537356785365 1.9767285581292779 -0.2700359762923138 0.28403961547585421 -1.5442208332511096 -0.45752337624629336 0.16124389584247883 -1.5289892854897873 0.76132637607423881 -0.51464219418439006 -0.21716698155258643 -3.0559298091464573 1.1162609281145706 0.32524967455380671 1.8818131683623953 0.066031684990633624 0.52015129980840247 -1.0321154999187088 0.91359053624303721 0.4350667660796374 2.0358140477427731 0.41429323355356856 0.23237498035033544 -0.15443665640694756 0.63636593572024647 -0.40170650641696581 -1.268250948218284 -1.6754311722594424
leaf_weight=37 29 148 21 29 37 43 26 120 26 23 38 22 33 36 32 37 146 55 49 101 95 244 27 21 60 21 29 78 54 77
leaf_count=37 29 148 21 29 37 43 26 120 26 23 38 22 33 36 32 37 146 55 49 101 95 244 27 21 60 21 29 78 54 77
internal_value=3.01407e-09 -0.317685 0.960179 -0.67108 0.717179 -0.786331 -1.41687 -0.590637 -0.856591 -2.91754 -0.445556 -1.30576 -1.5328 -1.8544 -0.136988 1.63222 1.44843 0.22503 -0.34478 -0.639097 0.307105 0.160125 0.694174 1.69727 -0.28551 -1.02535 1.3111 -0.687335 -0.709128 -1.41748
internal_weight=1794 1348 446 861 66 795 164 631 406 60 212 194 168 135 225 233 204 213 193 144 487 392 111 167 102 42 56 104 174 99
internal_count=1794 1348 446 861 66 795 164 631 406 60 212 194 168 135 225 233 204 213 193 144 487 392 111 167 102 42 56 104 174 99
cat_boundaries=0 1
cat_threshold=16
is_linear=0
shrinkage=0.05


Tree=2
num_leaves=31
num_cat=1
split_feature=6 5 0 1 0 7 2 4 5 3 0 0 2 0 2 0 0 5 6 4 6 0 4 0 1 4 2 5 3 3
split_gain=197551 107446 79545.6 49731.1 29626.3 29371.1 68318.4 27062.8 27059.8 25960.2 24344.9 23325.8 25660.5 25584.6 21152.3 19988.2 20583.5 18417.2 17736.2 19083.5 16264.9 15528.2 14273.5 14237.3 14108.3 11500.1 9885.41 9188.93 8874.27 13995.8
threshold=0.67400000000000015 3.0894500000000016 140.62150000000003 68.915000000000006 201.81150000000002 0 2.4355000000000007 38.880000000000003 -0.9860000000000001 151.65550000000002 353.24500000000006 137.96100000000001 1.83525 152.94500000000002 -1.5303999999999973 109.85600000000001 137.96100000000001 3.2100500000000016 0.50855000000000017 1.0000000180025095e-35 0.60025000000000006 201.81150000000002 105.76500000000003 274.21249999999992 18.650000000000002 71.855000000000004 2.9486100000000017 2.4166000000000007 117.12400000000001 90.100000000000009
decision_type=2 2 2 2 2 9 2 2 2 2 2 2 2 2 2 2 2 2 2 2 2 2 2 2 2 2 2 2 2 2
left_child=1 3 15 5 -5 6 9 14 10 -1 -9 -10 13 28 18 -2 -17 24 19 -7 23 -19 -18 -3 25 -4 -23 -8 29 -13
right_child=2 20 17 4 -6 7 27 8 11 -11 -12 12 -14 -15 -16 16 22 21 -20 -21 -22 26 -24 -25 -26 -27 -28 -29 -30 -31
leaf_value=-3.5916597569310991 2.7788869249409647 0.10668371271774608 -1.8014410404931931 1.8778921523998524 -0.25653418495848374 0.40863047736031666 -1.467009807807895 -0.67367204036563644 0.15318170424837332 -1.4525398166931194 0.72326004018909051 -1.1208480297691292 -0.20630869070688884 -2.903133312861125 1.0604478523135186 0.30898718970852929 1.7877225149575979 0.062730096673423594 0.49414372730011841 -0.9333076399127278 1.440076252715341 1.9340233979401766 0.39357852595193044 0.91072501300368458 0.22075622235735259 -0.14671488035292854 0.60454763626230179 -0.38162118270993234 -0.77167441613972187 -2.6998393307561463
leaf_weight=37 29 394 21 29 37 35 26 174 26 23 38 36 33 36 32 37 146 55 49 109 29 27 21 64 60 21 29 78 40 23
leaf_count=37 29 394 21 29 37 35 26 174 26 23 38 36 33 36 32 37 146 55 49 109 29 27 21 64 60 21 29 78 40 23
internal_value=7.76491e-10 -0.301801 0.91217 -0.637526 0.68132 -0.747015 -1.34603 -0.561105 -0.813761 -2.77166 -0.423279 -1.24047 -1.45616 -1.76168 -0.130138 1.55061 1.37601 0.213778 -0.327541 -0.607142 0.291749 0.659465 1.61241 0.219039 -0.271234 -0.974078 1.24554 -0.652968 -1.3466 -1.73639
internal_weight=1794 1348 446 861 66 795 164 631 406 60 212 194 168 135 225 233 204 213 193 144 487 111 167 458 102 42 56 104 99 59
internal_count=1794 1348 446 861 66 795 164 631 406 60 212 194 168 135 225 233 204 213 193 144 487 111 167 458 102 42 56 104 99 59
cat_boundaries=0 1
cat_threshold=16
is_linear=0
shrinkage=0.05


Tree=3
num_leaves=31
num_cat=1
split_feature=6 3 7 4 6 0 1 0 0 0 5 2 4 4 3 2 2 4 5 0 6 5 1 6 2 4 5 5 5 4
split_gain=178765 75819.8 60647.3 60244.1 44129.4 41370.6 35761.4 34251.3 31225.5 18968.9 18500.3 16653.5 15347.2 14134.5 27253.4 23615.7 22719 13338.7 12503.8 12311.4 12004.2 10140.6 9682.97 9335.83 9184.46 7148.82 10973.6 7102.08 6897.34 6619.57
threshold=0.55300000000000016 169.078 0 42.330000000000005 0.68700000000000017 121.1845 18.650000000000002 85.320000000000007 137.96100000000001 137.96100000000001 -0.9860000000000001 -0.35489999999999838 63.765000000000015 38.880000000000003 93.103500000000011 1.5099000000000002 -3.1007099999999994 36.900000000000006 1.6101000000000003 353.24500000000006 0.78600000000000014 2.8228100000000014 34.820000000000007 0.24950000000000003 -1.5581999999999978 129.92500000000004 -1.2351499999999989 4.1437600000000039 4.1437600000000039 29.070000000000004
decision_type=2 2 9 2 2 2 2 2 2 2 2 2 2 2 2 2 2 2 2 2 2 2 2 2 2 2 2 2 2 2
left_child=1 5 3 9 12 7 -6 -1 -7 -2 19 24 -5 14 -12 16 23 -9 -16 -10 -8 -20 27 -15 25 26 -3 -4 -13 -11
right_child=2 11 22 4 6 8 20 17 10 29 13 28 -14 15 18 -17 -18 -19 21 -21 -22 -23 -24 -25 -26 -27 -28 -29 -30 -31
leaf_value=-0.6785274094409709 2.5449299541915336 -1.0028001772239805 -0.40165868629355073 0.17350300082138606 -0.54569171667099003 1.1558120255377922 0.72232588096098471 -1.8407854652404787 -0.49480757255569785 1.0637383907876516 0.72727681907915309 0.12399493731908351 -1.3872838701638912 -0.34944489252838223 -1.9778797647227411 -0.19013026050619178 -2.880087414809636 -3.6063447340675019 -0.47577994672521468 0.53287276162041564 1.9461921224407122 -1.6922561341807958 0.39357254325856117 -1.5535558659334978 -0.75388404611618298 0.77205190969550097 0.020835795090533793 0.43594917841255665 0.64876908352943485 1.6524521226373812
leaf_weight=35 41 32 121 28 30 24 33 20 153 95 31 149 36 22 23 37 28 23 93 36 51 21 107 60 62 23 144 32 108 96
leaf_count=35 41 32 121 28 30 24 33 20 153 95 31 149 36 22 23 37 28 23 93 36 51 21 107 60 62 23 144 32 108 96
internal_value=-2.28387e-09 -0.385349 0.646466 1.0135 0.346279 -0.765019 0.936156 -1.83987 -0.606234 1.56911 -0.690141 0.0588213 -0.70444 -0.92479 -0.611491 -1.28285 -1.6504 -2.78515 -0.914424 -0.299059 1.46539 -0.699868 0.0276368 -1.2305 -0.222501 -0.056945 -0.16528 -0.226473 0.344523 1.35964
internal_weight=1794 1124 670 410 178 606 114 78 528 232 504 518 64 315 168 147 110 43 137 189 84 114 260 82 261 199 176 153 257 191
internal_count=1794 1124 670 410 178 606 114 78 528 232 504 518 64 315 168 147 110 43 137 189 84 114 260 82 261 199 176 153 257 191
cat_boundaries=0 1
cat_threshold=44
is_linear=0
shrinkage=0.05


Tree=4
num_leaves=31
num_cat=0
split_feature=6 5 0 1 0 4 5 0 0 0 5 4 1 1 2 2 2 1 6 0 4 0 1 3 4 1 2 0 4 3
split_gain=161739 88207.6 66121 42840.7 25408.4 25165.3 20784.3 20560.2 16277 16920.2 14934.1 14074.4 41478.6 34728 19413.1 23516.5 22768.7 16188.2 13868.2 13443.1 12913 12359.7 12233 11061 10498.1 9828 8171.86 7911.13 7782.77 11221.4
threshold=0.67400000000000015 3.0894500000000016 140.62150000000003 68.915000000000006 201.81150000000002 6.3449999999999998 -0.9860000000000001 353.24500000000006 109.85600000000001 137.96100000000001 3.2100500000000016 38.880000000000003 1.0000000180025095e-35 18.650000000000002 -3.5294499999999975 1.83525 -3.1007099999999994 29.190000000000005 0.60025000000000006 201.81150000000002 105.76500000000003 274.21249999999992 18.650000000000002 75.067000000000021 71.855000000000004 40.295000000000009 2.9486100000000017 238.39499999999998 36.900000000000006 180.15750000000003
decision_type=2 2 2 2 2 2 2 2 2 2 2 2 2 2 2 2 2 2 2 2 2 2 2 2 2 2 2 2 2 2
left_child=1 3 8 5 -5 -1 7 -7 -2 -10 22 12 -8 -14 -13 16 -16 27 21 -12 28 -3 24 -18 -4 -19 -21 -15 -11 -30
right_child=2 18 10 4 -6 6 11 -9 9 20 19 14 13 17 15 -17 23 25 -20 26 -22 -23 -24 -25 -26 -27 -28 -29 29 -31
leaf_value=0.32389611601829532 2.5158385105688001 0.092889279951601469 -1.6930903741291592 1.7549340449530506 -0.22172207284618067 -0.58868749586121782 1.0059251339204851 0.66197966761691007 0.28245629587688964 1.2119478171779996 0.034732390672645788 0.11901684325674307 -2.8826866348584494 -0.60164798796709107 -1.2222417527999807 -0.31760419973960291 -1.5094654941558838 -2.0158724205568435 1.3250633535970904 1.7612408775974204 0.30492459720089321 0.8420376921538264 0.21000228688120842 -2.9557263517991093 -0.11209453401111423 -0.70712760965733867 0.55247114506261108 0.44111402705311775 1.5673210355742224 2.834528533935547
leaf_weight=58 29 394 21 29 37 243 31 38 37 63 55 23 21 105 98 39 20 32 29 27 21 64 60 39 21 26 29 22 58 25
leaf_count=58 29 394 21 29 37 243 31 38 37 63 55 23 21 105 98 39 20 32 29 27 21 64 60 39 21 26 29 22 58 25
internal_value=-5.3611e-09 -0.273079 0.825361 -0.577267 0.646809 -0.678888 -0.757804 -0.419558 1.40744 1.24988 0.188623 -0.966241 -0.699217 -0.955816 -1.25521 -1.41647 -1.68944 -0.737091 0.264714 0.589959 1.46422 0.197574 -0.248125 -2.46547 -0.902592 -1.42919 1.13527 -0.421012 1.63096 1.94901
internal_weight=1794 1348 446 861 66 795 737 281 233 204 213 456 237 206 219 196 157 185 487 111 167 458 102 59 42 58 56 127 146 83
internal_count=1794 1348 446 861 66 795 737 281 233 204 213 456 237 206 219 196 157 185 487 111 167 458 102 59 42 58 56 127 146 83
is_linear=0
shrinkage=0.05


Tree=5
num_leaves=31
num_cat=1
split_feature=6 3 7 4 0 6 0 1 1 6 5 4 0 2 6 4 3 3 6 5 1 4 6 0 2 1 3 4 5 5
split_gain=148502 61615.1 50895.3 49871 35468.6 34309 29025.2 29001.4 27080.8 25453.6 18932.4 16905.7 26329.2 14449.5 13966.7 13091.8 12383.2 30191.9 17478.3 14881.4 14815.9 11601.8 9615.38 8908.17 8204.01 8097.4 7186.87 6222.38 9528.19 6173.37
threshold=0.55300000000000016 169.078 0 38.880000000000003 121.1845 0.68700000000000017 85.320000000000007 18.650000000000002 68.915000000000006 0.6666835000000001 -0.9860000000000001 29.070000000000004 164.46250000000001 -0.35489999999999838 0.78600000000000014 63.765000000000015 113.09900000000003 88.108000000000004 0.29995000000000005 -0.41379999999999978 18.650000000000002 36.900000000000006 0.32900000000000007 353.24500000000006 -1.5581999999999978 34.820000000000007 235.41149999999996 129.92500000000004 -1.2351499999999989 4.1437600000000039
decision_type=2 2 9 2 2 2 2 2 2 2 2 2 2 2 2 2 2 2 2 2 2 2 2 2 2 2 2 2 2 2
left_child=1 4 3 11 6 9 -1 -7 10 15 23 26 -13 24 -9 -5 17 19 -18 -12 -20 -8 -10 -6 27 29 -2 28 -3 -4
right_child=2 13 25 5 8 7 21 14 22 -11 16 12 -14 -15 -16 -17 18 -19 20 -21 -22 -23 -24 -25 -26 -27 -28 -29 -30 -31
leaf_value=-0.61963434355599545 1.2752087243750125 -0.937873440142721 -0.37326875047778429 0.9736027782613581 -0.41945908148037764 -0.48908747514088957 -1.6781576609611513 0.52520295711633347 -0.070944813489913938 -2.0471488995850087 -1.048015040957502 2.5639668150553629 1.0095790733893713 0.31531187698882845 1.8028866572813556 -0.68366137353273537 0.026974384836626775 -1.9710772510937282 -2.1047550916671756 0.51273796148598194 -0.67745468592643743 -3.3247600902681769 1.479488931298256 0.46530862791197641 -0.71507778840680281 0.35707346935556317 0.38700459748506549 0.71703022666599447 0.015965911580456627 0.40765586374327545
leaf_weight=35 79 32 121 22 152 30 20 35 20 20 42 63 48 257 55 26 66 70 24 24 75 23 20 35 62 107 32 23 144 32
leaf_count=35 79 32 121 22 152 30 20 35 20 20 42 63 48 257 55 26 66 70 24 24 75 23 20 35 62 107 32 23 144 32
internal_value=-3.26314e-09 -0.35122 0.58921 0.92544 -0.693482 0.348773 -1.68872 0.857235 -0.546459 -0.548513 -0.648978 1.45547 1.8918 0.0491876 1.30601 0.075918 -0.894449 -1.24769 -0.60329 -0.480468 -1.02347 -2.5589 0.704272 -0.253861 -0.212858 0.022542 1.01915 -0.0563878 -0.157459 -0.209938
internal_weight=1794 1124 670 410 606 188 78 120 528 68 488 222 111 518 90 48 301 136 165 66 99 43 40 187 261 260 111 199 176 153
internal_count=1794 1124 670 410 606 188 78 120 528 68 488 222 111 518 90 48 301 136 165 66 99 43 40 187 261 260 111 199 176 153
cat_boundaries=0 1
cat_threshold=44
is_linear=0
shrinkage=0.05


Tree=6
num_leaves=31
num_cat=1
split_feature=6 3 7 4 0 6 0 1 0 6 4 0 5 2 6 4 4 4 2 2 2 4 0 6 1 6 2 1 3 2
split_gain=134023 55607.7 45933 45008.6 32010.4 30963.9 26195.3 26173.7 25539.8 22971.9 15257.4 23762.1 13704.7 13040.6 12605 11815.3 10582 21136.6 19142.8 17957.3 10944.9 10470.7 8919.22 8153.02 7565.13 7890.05 7404.12 7345.51 6486.15 6248.36
threshold=0.55300000000000016 169.078 0 38.880000000000003 121.1845 0.68700000000000017 85.320000000000007 18.650000000000002 137.96100000000001 0.6666835000000001 29.070000000000004 164.46250000000001 -0.9860000000000001 -0.35489999999999838 0.78600000000000014 63.765000000000015 38.880000000000003 27.490000000000006 1.5099000000000002 -3.1007099999999994 2.6639200000000014 36.900000000000006 353.24500000000006 0.24950000000000003 18.650000000000002 0.66900000000000015 -1.5581999999999978 18.650000000000002 235.41149999999996 -0.26079999999999887
decision_type=2 2 9 2 2 2 2 2 2 2 2 2 2 2 2 2 2 2 2 2 2 2 2 2 2 2 2 2 2 2
left_child=1 4 3 10 6 9 -1 -7 -6 15 28 -12 22 26 -9 -5 17 20 19 23 -14 -8 29 -18 25 -4 -3 -19 -2 -10
right_child=2 13 24 5 8 7 21 14 12 -11 11 -13 16 -15 -16 -17 18 27 -20 -21 -22 -23 -24 -25 -26 -27 -28 -29 -30 -31
leaf_value=-0.58865260192326141 1.2114482991491693 -0.053568364851101863 0.064442148804664617 0.92492264346642927 1.0744344975488882 -0.46463309446970619 -1.5942497587203981 0.49894285440444952 -0.27050917059363377 -1.9447914794087411 2.4357684672824922 0.95910013963778828 -1.6966381781979611 0.29954629402194566 1.7127423840219327 -0.64947829705018267 -0.24104579768397591 0.75773875667498669 -0.1229823966284056 -2.5309628009796143 -0.57566609004256775 -3.1585220585698668 0.44968353095981811 -1.3662965946396193 0.14396662425866386 -1.2760450817289808 -0.67932392245819495 -0.26831459553455406 0.36765436679852431 -1.0857558638499729
leaf_weight=35 79 199 23 22 24 30 20 35 124 20 63 48 38 257 55 26 22 26 37 28 51 23 36 60 216 21 62 53 32 29
leaf_count=35 79 199 23 22 24 30 20 35 124 20 63 48 38 257 55 26 22 26 37 28 51 23 36 60 216 21 62 53 32 29
internal_value=3.64425e-09 -0.333659 0.55975 0.879168 -0.658808 0.331334 -1.60428 0.814374 -0.519136 -0.521088 1.3827 1.79721 -0.59502 0.0467282 1.24071 0.0721221 -0.79698 -0.525897 -1.10679 -1.43771 -1.05428 -2.43095 -0.25842 -1.0644 0.0214149 -0.575336 -0.202215 0.0693738 0.968192 -0.425033
internal_weight=1794 1124 670 410 606 188 78 120 528 68 222 111 504 518 90 48 315 168 147 110 89 43 189 82 260 44 261 79 111 153
internal_count=1794 1124 670 410 606 188 78 120 528 68 222 111 504 518 90 48 315 168 147 110 89 43 189 82 260 44 261 79 111 153
cat_boundaries=0 1
cat_threshold=44
is_linear=0
shrinkage=0.05


Tree=7
num_leaves=31
num_cat=1
split_feature=6 5 7 4 1 6 1 6 4 1 4 6 0 4 4 0 6 2 4 2 0 2 3 3 3 6 1 5 2 5
split_gain=120956 50724.9 41454.5 40620.2 40397.4 27944.9 23621.8 21615.7 30929.7 29543.7 29586.2 20732.1 18966.4 16683.1 13769.8 21445.3 11376 10741.5 10663.3 9174.07 23249.6 8326.81 10335.7 9607.81 14037.1 10114.4 7029.96 6332.43 6246.01 6186.8
threshold=0.55300000000000016 3.0894500000000016 0 38.880000000000003 68.915000000000006 0.68700000000000017 18.650000000000002 0.33010000000000006 71.855000000000004 1.0000000180025095e-35 43.555000000000007 0.6666835000000001 201.81150000000002 13.150000000000002 29.070000000000004 164.46250000000001 0.78600000000000014 -0.35489999999999838 63.765000000000015 -3.2730999999999981 153.953 2.4355000000000007 75.067000000000021 113.09900000000003 104.57700000000001 0.21210000000000004 34.820000000000007 -2.6602499999999969 -1.5581999999999978 -2.4447499999999995
decision_type=2 2 9 2 2 2 2 2 2 2 2 2 2 2 2 2 2 2 2 2 2 2 2 2 2 2 2 2 2 2
left_child=1 4 3 14 7 11 -7 8 13 10 -9 18 -6 -1 -2 -16 -8 28 -5 27 -21 22 -15 24 -24 -25 -4 -11 -3 -10
right_child=2 17 26 5 12 6 16 9 29 19 -12 -13 -14 21 15 -17 -18 -19 -20 20 -22 -23 23 25 -26 -27 -28 -29 -30 -31
leaf_value=0.38774960685420679 0.91978276088867372 0.037400867333453075 -0.1962966262709861 0.8786764979362488 1.8391749185064565 -0.44140146573384603 0.47399568728038244 1.1588049896832171 0.090787445132931077 -1.6890993099946243 -1.1411945175241542 -1.8475518822669983 -0.069253541628519696 -0.42175143001129833 2.3139800423667545 0.91114513650536544 1.6271052080934698 0.33392080973467259 -0.61700436335343589 -2.3051457563661182 -0.74041082082792775 -0.11460240297548643 -1.0340343154221774 -0.23831051270975623 -2.6064329472455112 -1.3502488307463818 0.33202146375638864 -0.831465410065651 -0.62365720701488581 1.1678323998053868
leaf_weight=37 111 102 153 22 23 30 35 29 24 26 27 20 30 83 63 48 55 249 26 53 43 44 40 43 22 39 107 125 55 30
leaf_count=37 111 102 153 22 23 30 35 29 24 26 27 20 30 83 63 48 55 249 26 53 43 44 40 43 22 39 107 125 55 30
internal_value=-3.18329e-09 -0.316976 0.531762 0.835209 -0.569556 0.314768 0.773655 -0.675435 -0.414633 -0.98702 0.0498767 -0.495033 0.758932 -0.608153 1.31357 1.70735 1.17867 0.129704 0.068516 -1.22211 -1.60427 -0.744125 -0.866147 -1.12229 -1.59198 -0.767159 0.0203441 -0.979137 -0.19418 0.689146
internal_weight=1794 1124 670 410 718 188 120 665 362 303 56 68 53 308 222 111 90 406 48 247 96 271 227 144 62 82 260 151 157 54
internal_count=1794 1124 670 410 718 188 120 665 362 303 56 68 53 308 222 111 90 406 48 247 96 271 227 144 62 82 260 151 157 54
cat_boundaries=0 1
cat_threshold=44
is_linear=0
shrinkage=0.05


Tree=8
num_leaves=31
num_cat=0
split_feature=6 5 2 1 0 4 0 5 0 3 3 0 0 6 0 4 1 4 6 5 1 2 4 5 2 6 6 6 4 4
split_gain=109773 60123.4 45009.7 30973.3 19715.1 19024.4 15060.1 14508.2 15759.2 10440.4 12895.5 11485.8 26385.4 10106 10194.6 9570.8 29627.8 12501.7 15293.1 10122 8268.35 12969.4 10641.5 7508.18 7749.49 7226.69 6979.2 17315.7 8937.63 8818.58
threshold=0.67400000000000015 3.0894500000000016 1.9320500000000005 68.915000000000006 201.81150000000002 6.3449999999999998 109.85600000000001 -0.9860000000000001 353.24500000000006 165.94200000000004 154.93899999999999 109.85600000000001 121.1845 0.60025000000000006 274.21249999999992 38.880000000000003 1.0000000180025095e-35 46.290000000000006 0.33331650000000007 -0.41379999999999978 18.650000000000002 1.0000000180025095e-35 105.76500000000003 3.2100500000000016 2.6639200000000014 0.33150000000000007 0.3927000000000001 0.50855000000000017 76.180000000000021 76.180000000000021
decision_type=2 2 2 2 2 2 2 2 2 2 2 2 2 2 2 2 2 2 2 2 2 2 2 2 2 2 2 2 2 2
left_child=1 3 6 5 -5 -1 -2 8 26 10 11 -9 -13 14 -3 16 -14 18 -17 25 21 -8 -22 24 -4 -19 29 -28 -29 -7
right_child=2 13 23 4 -6 7 20 9 -10 -11 -12 12 15 -15 -16 17 -18 19 -20 -21 22 -23 -24 -25 -26 -27 27 28 -30 -31
leaf_value=0.30937308987666823 2.1309231998591591 0.06663969984835931 -0.95555407665669923 1.5408191002648453 -0.20035296904074179 -0.54947550698466929 -0.51352291521818738 -0.069805123311717329 0.59835048412021841 -1.6618401809172199 -0.096386777431788778 -2.3966219047020223 0.91389613870916697 1.1241966996727319 0.74701793971471497 -2.7218359800902281 -0.90542716530569811 -0.54055153578519821 -0.81146963596343991 -0.21782568709717856 1.195392271398223 1.2274208972603082 0.18096628506978354 0.3208154109705772 0.082693674796965072 -1.5636465597814986 -1.4392664994833604 0.4050988071163496 -0.93981982072194425 0.29237279463955701
leaf_weight=58 29 394 32 29 37 92 23 41 38 33 66 29 29 29 64 22 98 28 20 45 187 20 30 84 41 45 53 30 21 47
leaf_count=58 29 394 32 29 37 92 23 41 38 33 66 29 29 29 64 22 98 28 20 45 187 20 30 84 41 45 53 30 21 47
internal_value=2.58253e-09 -0.224972 0.679961 -0.476109 0.564707 -0.562516 1.05018 -0.631132 -0.348531 -0.805278 -0.738454 -0.857155 -0.959311 0.219029 0.161714 -0.814078 -0.489991 -1.07132 -1.81214 -0.807641 0.929634 0.296218 1.05515 -0.00152099 -0.372429 -1.17123 -0.496603 -0.806388 -0.148691 -0.264822
internal_weight=1794 1348 446 861 66 795 289 737 281 456 423 357 316 487 458 287 127 160 42 118 260 43 217 157 73 73 243 104 51 139
internal_count=1794 1348 446 861 66 795 289 737 281 456 423 357 316 487 458 287 127 160 42 118 260 43 217 157 73 73 243 104 51 139
is_linear=0
shrinkage=0.05


Tree=9
num_leaves=31
num_cat=1
split_feature=6 5 7 4 1 5 1 1 6 4 6 4 6 3 3 5 6 0 0 6 6 4 3 2 5 4 3 2 0 2
split_gain=99709.2 41269.8 35971.3 36201.5 33448.6 18350.1 19262.1 24023.2 17178 19632.3 16097.7 15038.9 13199 14089.2 23073.7 17955.5 12046.1 11475.2 11091.8 11656.4 10965.5 10014.4 11443 9395.62 9139.8 9085.52 6899.51 6801 6153.45 6035.81
threshold=0.55300000000000016 3.0894500000000016 0 96.410000000000011 68.915000000000006 -0.95289999999999875 38.715000000000003 40.295000000000009 0.67400000000000015 43.555000000000007 0.24600000000000002 1.0000000180025095e-35 0.48200000000000004 116.13799999999999 90.055999999999997 1.2514600000000005 0.79720000000000013 164.46250000000001 353.24500000000006 0.33150000000000007 0.29995000000000005 29.070000000000004 171.93800000000002 -0.35489999999999838 -0.41379999999999978 76.180000000000021 138.874 3.2603000000000022 152.94500000000002 -2.706949999999996
decision_type=2 2 9 2 2 2 2 2 2 2 2 2 2 2 2 2 2 2 2 2 2 2 2 2 2 2 2 2 2 2
left_child=1 4 3 8 5 11 12 -8 9 29 -6 -1 13 14 24 -15 -5 21 19 25 -17 -10 -23 -3 -7 -13 -4 -28 -21 -2
right_child=2 23 26 16 10 6 7 -9 17 -11 -12 18 -14 15 -16 20 -18 -19 -20 28 -22 22 -24 -25 -26 -27 27 -29 -30 -31
leaf_value=0.90559014652086356 0.60730964945008359 -0.18780297862668374 -0.7193045664707135 -1.4858989554643633 -0.42610221982002261 -0.78636687417470275 -2.7395530070577347 -0.70317042350769043 0.96748229277295028 -0.35412384543729869 1.3716023860555708 -0.50710859158448873 -1.2898806517392818 1.0594501600911221 -1.6075041556152805 0.056065586029805929 0.19193017379097319 0.65258666847793156 0.40739300864083428 -1.1495436068670251 -0.93356693004045577 1.2844261578444778 2.3757458163470759 0.30610532668460327 0.70713451534509664 0.3767088591234713 -0.049141816869168804 0.59608803920026099 -0.18908771844137284 1.5209249932190467
leaf_weight=23 48 157 29 20 20 21 28 30 74 46 33 100 71 24 58 55 23 71 35 81 57 58 41 249 20 41 178 53 21 29
leaf_count=23 48 157 29 20 20 21 28 30 74 46 33 100 71 24 58 55 23 71 35 81 57 58 41 249 20 41 178 53 21 29
internal_value=2.40864e-09 -0.287793 0.482805 0.765462 -0.515619 -0.611963 -0.850806 -1.68625 0.944953 0.463154 0.693223 -0.323131 -0.692453 -0.511954 -0.96572 -0.181639 -0.588455 1.18783 -0.424787 -0.544649 -0.447587 1.40749 1.73639 0.115111 -0.0578296 -0.250112 0.00735404 0.0988979 -0.951803 0.951399
internal_weight=1794 1124 670 410 718 665 364 58 367 123 53 301 306 235 99 136 43 244 278 243 112 173 99 406 41 141 260 231 102 77
internal_count=1794 1124 670 410 718 665 364 58 367 123 53 301 306 235 99 136 43 244 278 243 112 173 99 406 41 141 260 231 102 77
cat_boundaries=0 1
cat_threshold=44
is_linear=0
shrinkage=0.05


Tree=10
num_leaves=31
num_cat=1
split_feature=6 5 0 1 7 4 6 5 1 1 0 4 4 6 3 3 5 6 0 6 6 6 2 5 4 1 6 2 0 6
split_gain=89987.5 37246 33217.8 30187.4 21089.2 26985.9 19596.9 16561 17384.1 21680.9 15059.5 13572.6 12295 11912.1 12715.5 20824 16204.9 10871.6 10010.3 10519.9 9896.34 8684.11 8479.55 8248.67 8199.68 6332.72 6840.17 5637.02 5553.49 5298.98
threshold=0.55300000000000016 3.0894500000000016 109.85600000000001 68.915000000000006 0 96.410000000000011 0.70020000000000004 -0.95289999999999875 38.715000000000003 40.295000000000009 201.81150000000002 1.0000000180025095e-35 43.555000000000007 0.48200000000000004 116.13799999999999 90.055999999999997 1.2514600000000005 0.79720000000000013 353.24500000000006 0.33150000000000007 0.29995000000000005 0.89985000000000015 -0.35489999999999838 -0.41379999999999978 76.180000000000021 18.650000000000002 0.66900000000000015 -1.5581999999999978 152.94500000000002 0.6666835000000001
decision_type=2 2 2 2 9 2 2 2 2 2 2 2 2 2 2 2 2 2 2 2 2 2 2 2 2 2 2 2 2 2
left_child=1 3 -2 7 5 6 12 11 13 -10 -5 -1 -4 14 15 23 -16 -7 19 24 -18 -8 27 -9 -13 26 -6 -3 -21 -14
right_child=2 22 4 10 25 17 21 8 9 -11 -12 18 29 -15 16 -17 20 -19 -20 28 -22 -23 -24 -25 -26 -27 -28 -29 -30 -31
leaf_value=0.86031064365221122 1.755340365741564 0.041588986723446381 0.72574531297351041 1.6211353571518607 0.056210985998420615 -1.4116039843857289 1.3260338035092427 -0.74704852118378595 -2.6025754230363027 -0.66801189670960115 -0.079410717089970911 -0.48175317299365999 0.2544073440631231 -1.2253866228786574 1.0064776614308357 -1.5271289370183287 0.053262307061813778 0.18233366323553998 0.38702335221426831 -1.0920664201180139 -0.88688859207588333 0.50206279442423873 0.29080005837828821 0.67177772775292399 0.35787341093144764 0.11862751061993618 -1.191908818199521 -0.58641618961976338 -0.17963328077679588 -0.69342731442944761
leaf_weight=23 46 102 86 23 23 20 134 21 28 30 30 100 30 71 24 58 55 23 35 81 57 42 249 20 41 216 21 55 21 29
leaf_count=23 46 102 86 23 23 20 134 21 28 30 30 100 30 71 24 58 55 23 35 81 57 42 249 20 41 216 21 55 21 29
internal_value=4.74759e-10 -0.273404 0.458665 -0.489839 0.363077 0.600732 0.774804 -0.581365 -0.808265 -1.60194 0.658562 -0.306974 0.344393 -0.657831 -0.486356 -0.917434 -0.172557 -0.559033 -0.403548 -0.517416 -0.425207 1.1294 0.109356 -0.0549382 -0.237606 0.00698633 -0.539483 -0.178413 -0.904213 -0.211477
internal_weight=1794 1124 670 718 624 364 321 665 364 58 53 301 145 306 235 99 136 43 278 243 112 176 406 41 141 260 44 157 102 59
internal_count=1794 1124 670 718 624 364 321 665 364 58 53 301 145 306 235 99 136 43 278 243 112 176 406 41 141 260 44 157 102 59
cat_boundaries=0 1
cat_threshold=44
is_linear=0
shrinkage=0.05


Tree=11
num_leaves=31
num_cat=1
split_feature=6 5 2 1 4 7 2 3 4 2 1 5 0 2 0 6 0 0 6 4 6 5 5 2 1 2 5 6 6 4
split_gain=81687.9 44874.1 36495.6 22796.9 18248 14786.7 34892.3 17070.1 14180.3 15346.4 14118.3 17262.4 16872.7 12568 11274.5 8396.86 8547.03 8179.74 7405.09 9665.77 7399.89 6801.5 6692.23 6981.94 6643.24 11208.4 7874.69 6477.73 6003.91 5595.77
threshold=0.67400000000000015 3.0894500000000016 1.9320500000000005 68.915000000000006 42.330000000000005 0 2.4355000000000007 151.65550000000002 38.880000000000003 2.1504000000000003 20.965000000000003 -0.9860000000000001 152.94500000000002 -1.5303999999999973 109.85600000000001 0.60025000000000006 274.21249999999992 201.81150000000002 0.50855000000000017 1.0000000180025095e-35 0.15900000000000003 2.4166000000000007 3.2100500000000016 2.6639200000000014 18.650000000000002 1.0000000180025095e-35 2.8228100000000014 0.21830000000000002 0.72613650000000007 36.900000000000006
decision_type=2 2 2 2 2 9 2 2 2 2 2 2 2 2 2 2 2 2 2 2 2 2 2 2 2 2 2 2 2 2
left_child=1 3 14 5 -5 6 7 -1 13 10 11 -10 27 18 -2 16 -3 -6 19 -7 -21 -8 23 -4 25 -16 28 -13 -26 -28
right_child=2 15 22 4 17 8 21 -9 9 -11 -12 12 -14 -15 24 -17 -18 -19 -20 20 -22 -23 -24 -25 26 -27 29 -29 -30 -31
leaf_value=-2.5870734770153021 1.8550319720958843 0.050215944984152466 -0.93075740938074891 1.6989312399001351 0.63460771129244853 0.3472416584832328 -1.1083621582159631 -0.85247689641040303 -0.43093391094032835 0.5505934000015259 0.13183958079876765 -0.14445682475343347 -2.176518128812313 0.87488740421831612 -0.50489737676537561 1.0145957691916105 0.67319328532321387 -0.71662708794077234 0.33592623027269636 0.26125970922410485 -0.80309384463124722 -0.17455949620940747 0.27722946862202313 0.054733481785146199 0.25422581683757695 1.1135453683137893 0.85701371999013998 -1.0771279870745649 0.93987219267705047 1.9287211812775711
leaf_weight=37 29 394 32 21 21 35 26 23 184 30 53 24 32 32 23 29 64 24 49 20 89 78 84 41 43 20 21 83 124 29
leaf_count=37 29 394 32 21 21 35 26 23 184 30 53 24 32 32 23 29 64 24 49 20 89 78 84 41 43 20 21 83 124 29
internal_value=-2.36516e-10 -0.194071 0.586564 -0.411034 0.481898 -0.485164 -0.906677 -1.92214 -0.355606 -0.537694 -0.624525 -0.748635 -1.16919 -0.0428441 0.919932 0.189513 0.13727 -0.0860508 -0.195007 -0.375672 -0.6078 -0.40801 -0.0270885 -0.377263 0.815632 0.247867 0.928139 -0.867931 0.763329 1.4786
internal_weight=1794 1348 446 861 66 795 164 60 631 406 376 323 139 225 289 487 458 45 193 144 109 104 157 73 260 43 217 107 167 50
internal_count=1794 1348 446 861 66 795 164 60 631 406 376 323 139 225 289 487 458 45 193 144 109 104 157 73 260 43 217 107 167 50
cat_boundaries=0 1
cat_threshold=16
is_linear=0
shrinkage=0.05


Tree=12
num_leaves=31
num_cat=1
split_feature=6 5 7 4 1 5 1 1 6 0 6 4 6 3 3 5 4 6 1 0 6 6 2 4 5 3 2 0 6 2
split_gain=74131.6 30286.9 28010.6 28440.6 24809.5 14306.8 14480.8 18030 13982.2 12767.3 15974.5 11431 10224.7 11063.2 17739.5 14463.4 10096 9621.86 9201.12 8687.58 9338.6 7687.03 7409.92 7392.34 6829.78 5838.83 6009.84 5278.24 5104.78 5087.41
threshold=0.55300000000000016 3.0894500000000016 0 96.410000000000011 68.915000000000006 -0.95289999999999875 38.715000000000003 40.295000000000009 0.24600000000000002 137.96100000000001 0.70020000000000004 1.0000000180025095e-35 0.48200000000000004 116.13799999999999 90.055999999999997 1.2514600000000005 43.555000000000007 0.79720000000000013 18.650000000000002 353.24500000000006 0.33150000000000007 0.89985000000000015 -0.35489999999999838 76.180000000000021 -0.41379999999999978 138.874 3.2603000000000022 118.69500000000001 0.6666835000000001 -1.5581999999999978
decision_type=2 2 9 2 2 2 2 2 2 2 2 2 2 2 2 2 2 2 2 2 2 2 2 2 2 2 2 2 2 2
left_child=1 4 3 9 5 11 12 -8 -6 -2 16 -1 13 14 24 -15 -11 -5 -17 20 23 -12 29 -13 -7 -4 27 -27 -18 -3
right_child=2 22 25 17 8 6 7 -9 -10 10 21 19 -14 15 -16 18 28 -19 -20 -21 -22 -23 -24 -25 -26 26 -28 -29 -30 -31
leaf_value=0.79998226373091996 1.6035463693997134 0.036998737665514154 -0.67136271616508225 -1.3367059452831747 -0.44541478574275972 -0.67683633218208961 -2.3740678733879967 -0.60988952142496911 1.2300057790496135 0.66983911408934482 1.2180184415249684 -0.43415187068656086 -1.1257120203384212 0.96555989856521285 -1.4058510354880629 -1.2784934689169347 0.27782073934872947 0.16282263838726541 -0.15662862740122202 0.37659922463553297 -0.83040072744091364 0.44279221452417827 0.26661880084698697 0.36306866921666192 0.61420661091804507 0.70743817567825318 0.54870215856804039 -0.15470850274579814 -0.65248328663151844 -0.55960618731650447
leaf_weight=23 46 102 29 20 20 21 28 30 33 86 134 100 71 24 58 23 30 23 89 35 102 42 249 41 20 20 53 158 29 55
leaf_count=23 46 102 29 20 20 21 28 30 33 86 134 100 71 24 58 23 30 23 89 35 102 42 249 41 20 20 53 158 29 55
internal_value=7.61255e-10 -0.24815 0.4163 0.665725 -0.443321 -0.526295 -0.737189 -1.46156 0.597772 0.824506 0.712868 -0.271261 -0.59989 -0.441024 -0.843119 -0.148323 0.324267 -0.534633 -0.387012 -0.359889 -0.465968 1.03302 0.097004 -0.202336 -0.0470593 -0.00253142 0.0813248 -0.0578381 -0.179447 -0.172003
internal_weight=1794 1124 670 410 718 665 364 58 53 367 321 301 306 235 99 136 145 43 112 278 243 176 406 141 41 260 231 178 59 157
internal_count=1794 1124 670 410 718 665 364 58 53 367 321 301 306 235 99 136 145 43 112 278 243 176 406 141 41 260 231 178 59 157
cat_boundaries=0 1
cat_threshold=44
is_linear=0
shrinkage=0.05


Tree=13
num_leaves=31
num_cat=1
split_feature=6 5 0 1 7 4 6 5 6 1 1 4 6 3 3 5 6 4 0 6 6 6 4 5 0 6 3 2 2 0
split_gain=67020.2 28632.7 26865.1 22356.8 17166.4 20967.6 13523.9 12828.1 12618.9 12387.7 17039.4 10322.5 8960.26 9984.56 16009.9 13053.2 8477.57 8406.53 7860.06 15320.9 8103.86 6937.54 6870.16 6163.88 5769.42 5322.05 5253.82 5234.24 4775.42 4771.29
threshold=0.58400000000000007 3.0894500000000016 109.85600000000001 68.915000000000006 0 96.410000000000011 0.70020000000000004 -0.95289999999999875 0.24600000000000002 38.715000000000003 40.295000000000009 1.0000000180025095e-35 0.48200000000000004 116.13799999999999 90.055999999999997 1.2514600000000005 0.29995000000000005 43.555000000000007 324.41850000000005 0.22555000000000003 0.33150000000000007 0.89985000000000015 76.180000000000021 -0.41379999999999978 274.21249999999992 0.6666835000000001 138.874 3.2603000000000022 -0.35489999999999838 118.69500000000001
decision_type=2 2 2 2 9 2 2 2 2 2 2 2 2 2 2 2 2 2 2 2 2 2 2 2 2 2 2 2 2 2
left_child=1 3 -2 7 5 6 17 11 -5 12 -11 -1 13 14 23 -15 -17 28 20 -20 22 -8 -13 -9 -3 -19 -6 29 -4 -28
right_child=2 24 4 8 26 -7 21 9 -10 10 -12 18 -14 15 -16 16 -18 25 19 -21 -22 -23 -24 -25 -26 -27 27 -29 -30 -31
leaf_value=0.75998312494029174 1.6123117526603299 0.025198719297639199 0.40410059476107885 -0.42314404070377354 -0.63779455382248451 -0.51109159574276064 1.1571175277344328 -0.642994522196906 1.1685055015665113 -2.2553645155259541 -0.56640542242676017 -0.42827467813428188 -1.0531494735752884 0.91728189152975892 -1.3355584928701665 0.075185021839358601 -0.79496856088701051 0.34656747536999838 -0.67121982335112995 1.2858779627084733 -0.78227516720429646 0.42065258803999139 0.34491523540601499 0.58349633075296881 0.56659507754079086 -0.61985911341576738 0.67206626057624819 0.51723650946066935 1.2576318906701129 -0.1488278962816898
leaf_weight=23 43 360 57 20 29 41 134 21 33 28 32 96 73 24 58 55 57 28 20 20 104 42 41 20 57 29 20 52 23 154
leaf_count=23 43 360 57 20 29 41 134 21 33 28 32 96 73 24 58 55 57 28 20 20 104 42 41 20 57 29 20 52 23 154
internal_value=-8.53037e-10 -0.230915 0.404456 -0.42079 0.319172 0.536961 0.691401 -0.498765 0.567883 -0.69732 -1.35459 -0.25841 -0.569281 -0.418973 -0.800963 -0.140906 -0.367661 0.318885 -0.341766 0.307329 -0.4495 0.98137 -0.196882 -0.0447063 0.0992025 -0.145123 -0.0040676 0.0770714 0.649491 -0.0544722
internal_weight=1794 1142 652 725 609 354 313 672 53 368 60 304 308 235 99 136 112 137 281 40 241 176 137 41 417 57 255 226 80 174
internal_count=1794 1142 652 725 609 354 313 672 53 368 60 304 308 235 99 136 112 137 281 40 241 176 137 41 417 57 255 226 80 174
cat_boundaries=0 1
cat_threshold=44
is_linear=0
shrinkage=0.05


Tree=14
num_leaves=31
num_cat=0
split_feature=6 5 0 1 4 4 2 6 6 6 4 0 2 2 1 6 5 2 6 6 5 1 4 0 3 6 0 5 4 0
split_gain=61025.7 33808.6 29916.2 16961.8 16349.9 10593 9978.2 10673.8 15081.1 15341.3 17240.9 10581.5 9242.61 18613.2 21461 17843.3 17781 10199.6 9102.83 8709.07 8260.12 8758.19 8635.9 8009.24 7682.37 7361.97 7617.33 7340.04 11643 7330.71
threshold=0.67400000000000015 2.9416100000000016 140.62150000000003 68.915000000000006 42.330000000000005 6.3449999999999998 -3.5294499999999975 0.6666835000000001 0.56050000000000011 0.49990000000000007 71.855000000000004 238.39499999999998 -1.5303999999999973 0.38848999999999984 18.650000000000002 0.15900000000000003 -0.59434999999999993 -1.5581999999999978 0.39915000000000006 0.52200000000000013 3.2100500000000016 18.650000000000002 71.855000000000004 201.81150000000002 133.595 0.60025000000000006 274.21249999999992 2.8228100000000014 36.900000000000006 201.81150000000002
decision_type=2 2 2 2 2 2 2 2 2 2 2 2 2 2 2 2 2 2 2 2 2 2 2 2 2 2 2 2 2 2
left_child=1 3 27 5 -5 -1 -7 8 9 10 12 19 15 -14 16 -8 -15 -17 -12 -11 21 22 -4 -22 -10 26 -3 -2 -29 -6
right_child=2 25 20 4 29 6 7 -9 24 11 18 -13 13 14 -16 17 -18 -19 -20 -21 23 -23 -24 -25 -26 -27 -28 28 -30 -31
leaf_value=0.2276987131042727 0.71084436492890313 0.0299152314162172 -1.5168626578081223 1.563771506718227 0.55640704461506441 0.18633024856307598 0.16831254410660931 -1.6639707583189012 0.74474945592157771 -1.7704166815236766 0.43673412519088689 -0.16862237566993352 1.0858755332231522 -0.44466923917162005 0.11323885666268568 -0.89117856253968919 -1.8050494460071005 -1.9689427490417775 -0.77473889112472538 -0.54901084154844282 -0.051400759057565172 0.14151025881369911 -0.082928537187122175 0.79807638499353617 -0.26947279004163521 0.92059856782356908 0.60990057752439475 0.58694583869749495 1.8710382560404337 -0.72278009600316484
leaf_weight=58 161 398 21 21 21 53 36 20 33 54 69 21 20 58 75 141 41 26 20 20 55 60 21 56 43 30 66 31 41 24
leaf_count=58 161 398 21 21 21 53 36 20 33 54 69 21 20 58 75 141 41 26 20 20 55 60 21 56 43 30 66 31 41 24
internal_value=1.28773e-09 -0.16774 0.506982 -0.358187 0.411773 -0.422676 -0.47435 -0.526072 -0.491433 -0.578074 -0.464479 -1.1592 -0.605483 -0.358698 -0.524741 -0.841327 -1.00806 -1.05897 0.164493 -1.44031 0.0786866 -0.246127 -0.799896 0.377164 0.170913 0.161493 0.112413 0.898514 1.31817 -0.125826
internal_weight=1794 1348 446 854 66 788 730 677 657 581 486 95 397 194 174 203 99 167 89 74 213 102 42 111 76 494 464 233 72 45
internal_count=1794 1348 446 854 66 788 730 677 657 581 486 95 397 194 174 203 99 167 89 74 213 102 42 111 76 494 464 233 72 45
is_linear=0
shrinkage=0.05


Tree=15
num_leaves=31
num_cat=0
split_feature=6 5 2 1 4 4 2 6 6 6 4 0 6 2 0 1 6 5 2 6 0 3 6 2 0 6 0 4 0 2
split_gain=55075.7 30512.3 27764.8 15308 14755.8 9560.18 9005.33 9633.14 13610.7 13845.5 15559.9 9549.78 8383.21 8341.45 17041.2 16224 16103.6 15510 9205.15 7859.94 7621.33 6933.34 6686.76 6987.94 6615.97 6350.01 6398.91 5570.62 14924.3 5455.62
threshold=0.67400000000000015 2.9416100000000016 1.9320500000000005 68.915000000000006 42.330000000000005 6.3449999999999998 -3.5294499999999975 0.6666835000000001 0.56050000000000011 0.49990000000000007 71.855000000000004 238.39499999999998 0.33331650000000007 -1.5303999999999973 151.79200000000003 18.650000000000002 0.15900000000000003 1.0000000180025095e-35 -1.5581999999999978 0.52200000000000013 109.85600000000001 133.595 0.50205000000000011 -0.35489999999999838 201.81150000000002 0.16668350000000001 287.7595 36.900000000000006 140.62150000000003 2.4166000000000007
decision_type=2 2 2 2 2 2 2 2 2 2 2 2 2 2 2 2 2 2 2 2 2 2 2 2 2 2 2 2 2 2
left_child=1 3 20 5 -5 -1 -7 8 9 10 13 19 -12 16 -15 17 -8 25 -18 -11 -2 -10 23 -3 -6 -16 -27 -24 -29 -4
right_child=2 22 29 4 24 6 7 -9 21 11 12 -13 -14 14 15 -17 18 -19 -20 -21 -22 -23 27 -25 -26 26 -28 28 -30 -31
leaf_value=0.21631376748454981 1.5412225945242521 -0.21001267121392209 -0.64782608680186737 1.4855829034532819 0.52858669232754474 0.17701374771741202 0.1598969219123117 -1.5807722330093386 0.70751198638569235 -1.6818958483360433 0.54694489253753875 -0.16019124218395778 -0.44648976262126655 0.71362832877784976 -1.1579508763292563 0.1787196714645968 -0.84661964190767169 -1.7270201927906759 -1.8704956163580602 -0.52156029745936394 0.68665077368800453 -0.25599914234738019 -0.13443608808517457 0.2248892650805383 -0.68664110625783614 -0.6975459011701437 0.43463475046058497 1.7911994835604792 0.27029419965628121 0.092589805606338726
leaf_weight=58 29 149 31 21 21 53 36 20 33 54 54 21 35 32 23 52 141 37 26 20 260 43 25 243 24 26 24 23 54 126
leaf_count=58 29 149 31 21 21 53 36 20 33 54 54 21 35 32 23 52 141 37 26 20 260 43 25 243 24 26 24 23 54 126
internal_value=1.32638e-10 -0.159353 0.481633 -0.340278 0.391184 -0.401542 -0.450632 -0.499768 -0.466861 -0.54917 -0.441255 -1.10124 0.156268 -0.575209 -0.340763 -0.549038 -0.799261 -0.893069 -1.00603 -1.36829 0.772404 0.162368 0.153419 0.0595822 -0.119535 -0.470381 -0.154099 0.514045 0.724591 -0.053607
internal_weight=1794 1348 446 854 66 788 730 677 657 581 486 95 89 397 194 162 203 110 167 74 289 76 494 392 45 73 50 102 77 157
internal_count=1794 1348 446 854 66 788 730 677 657 581 486 95 89 397 194 162 203 110 167 74 289 76 494 392 45 73 50 102 77 157
is_linear=0
shrinkage=0.05


Tree=16
num_leaves=31
num_cat=1
split_feature=6 5 2 1 0 7 2 3 4 2 1 5 0 2 5 6 2 6 3 4 4 2 5 2 4 0 5 2 6 6
split_gain=49705.8 27586.2 25057.7 13736 13324.7 10142.9 23955.3 13700.5 11139.4 12834.1 11428.9 12290.5 13058.2 10705 7412.61 6132.99 6583.49 6131.12 6965.39 5922.67 5857.02 7564.8 5269.2 5590.68 5227.32 13369.5 5226.79 5119.42 4868.14 4675.2
threshold=0.67400000000000015 3.0894500000000016 1.9320500000000005 68.915000000000006 201.81150000000002 0 2.4355000000000007 151.65550000000002 38.880000000000003 2.1504000000000003 20.965000000000003 -0.9860000000000001 152.94500000000002 -1.5303999999999973 2.8228100000000014 0.50205000000000011 -0.35489999999999838 0.76265000000000016 136.172 28.860000000000003 36.900000000000006 -1.5581999999999978 3.2100500000000016 2.6639200000000014 36.900000000000006 140.62150000000003 2.0252200000000005 2.9486100000000017 0.21830000000000002 0.50855000000000017
decision_type=2 2 2 2 2 9 2 2 2 2 2 2 2 2 2 2 2 2 2 2 2 2 2 2 2 2 2 2 2 2
left_child=1 3 14 5 -5 6 7 -1 13 10 11 -10 28 29 17 16 -3 18 -2 -20 -16 -22 23 -4 -17 -26 -8 -28 -13 -7
right_child=2 15 22 4 -6 8 26 -9 9 -11 -12 12 -14 -15 20 24 -18 -19 19 -21 21 -23 -24 -25 25 -27 27 -29 -30 -31
leaf_value=-2.1620995493354025 0.75113010518252854 -0.2043350872868786 -0.85693578554783023 1.1740938256526816 -0.25733661293177995 -0.27899986291821632 -0.99614706655794927 -0.60810695679291438 -0.35660701680564039 0.56162033398946132 0.16750706571488169 -0.087331953148047134 -1.8657182160299273 0.85197015888988981 0.51499595238316453 -0.12771427989006043 0.22056748500947532 0.77785139573448958 0.36570858614785329 -0.82179243110475086 1.7990143959338849 0.73268369405434053 0.21910492014250763 0.024918355738244406 1.7432892052964732 0.27703505422709124 -0.47771337627554716 0.31836713139588635 -0.89586666017232186 0.2864181317236959
leaf_weight=37 32 147 32 29 37 144 22 23 184 30 53 24 32 32 31 25 240 116 21 21 39 29 84 41 22 53 46 36 83 49
leaf_count=37 32 147 32 29 37 144 22 23 184 30 53 24 32 32 31 25 240 116 21 21 39 29 84 41 22 53 46 36 83 49
internal_value=1.85133e-09 -0.151386 0.457551 -0.321497 0.371625 -0.37904 -0.726511 -1.5664 -0.272892 -0.433609 -0.513015 -0.62468 -0.979539 0.00498468 0.733783 0.149366 0.0591704 0.550996 0.195384 -0.228042 1.08459 1.34426 -0.0509266 -0.361648 0.498424 0.707136 -0.311816 -0.128215 -0.714513 -0.135448
internal_weight=1794 1348 446 861 66 795 164 60 631 406 376 323 139 225 289 487 387 190 74 42 99 68 157 73 100 75 104 82 107 193
internal_count=1794 1348 446 861 66 795 164 60 631 406 376 323 139 225 289 487 387 190 74 42 99 68 157 73 100 75 104 82 107 193
cat_boundaries=0 1
cat_threshold=16
is_linear=0
shrinkage=0.05


Tree=17
num_leaves=31
num_cat=1
split_feature=6 0 5 1 7 4 6 6 5 1 1 4 2 0 0 6 3 3 5 6 6 6 5 1 6 2 2 5 6 5
split_gain=44867.3 20069.5 18864.1 15276.1 14096.2 17168.1 10873.7 9728.16 9594.37 9064.72 11913.7 8258.77 7534.06 9170.95 6800.09 6511.69 7634.35 12513.2 11154.5 6873.86 5988.47 5962.07 5139.51 4862.54 5684.82 4436.85 5128.16 4539.33 3927.31 3730.6
threshold=0.58400000000000007 109.85600000000001 3.0894500000000016 68.915000000000006 0 96.410000000000011 0.24600000000000002 0.70020000000000004 -0.95289999999999875 38.715000000000003 40.295000000000009 1.0000000180025095e-35 -0.35489999999999838 140.62150000000003 353.24500000000006 0.48200000000000004 116.13799999999999 90.055999999999997 1.2514600000000005 0.2828500000000001 0.89985000000000015 0.16633350000000005 -0.41379999999999978 18.650000000000002 0.66900000000000015 -0.35489999999999838 -1.5581999999999978 6.1743500000000084 0.45050000000000007 2.4355000000000016
decision_type=2 2 2 2 9 2 2 2 2 2 2 2 2 2 2 2 2 2 2 2 2 2 2 2 2 2 2 2 2 2
left_child=2 -2 3 8 5 7 -5 12 11 15 -11 -1 13 29 21 16 17 22 -18 -20 -9 -13 -10 24 -6 26 28 -27 -4 -3
right_child=1 4 25 6 23 -7 -8 20 9 10 -12 14 -14 -15 -16 -17 18 -19 19 -21 -22 -23 -24 -25 -26 27 -28 -29 -30 -31
leaf_value=0.7112749970477561 1.3748988518534704 0.085713775455951699 -0.067221388061729712 -0.44575057968497278 0.042201703515919772 -0.49459852736170701 1.0317368815342585 1.0027191268029945 -0.55331156168665208 -1.8946698135829398 -0.48241176097435529 0.21804231620720915 0.94920987337827689 -0.89046963090077047 0.37788577687527458 -0.88218700030486874 0.87979108033080911 -1.1482040409191414 0.13612546945104795 -0.65348155470121483 0.31848130096193583 -0.47055014634246461 0.56663686335086827 0.063652820569761806 -1.1079139559041886 0.14176256481220531 -0.51716119098053737 0.86453739603360502 0.70817006386816506 0.8126946132183076
leaf_weight=23 43 60 89 20 22 41 33 134 21 28 32 37 32 20 35 73 24 58 49 63 42 209 20 212 21 229 55 24 20 25
leaf_count=23 43 60 89 20 22 41 33 134 21 28 32 37 32 20 35 73 24 58 49 63 42 209 20 212 21 229 55 24 20 25
internal_value=-2.82173e-09 0.330928 -0.188936 -0.343054 0.257215 0.454636 0.474194 0.593502 -0.40751 -0.579224 -1.14147 -0.199645 0.277559 0.0728648 -0.274204 -0.469696 -0.341561 -0.675582 -0.0984133 -0.308028 0.839435 -0.366981 -0.00699526 -0.0333712 -0.519483 0.0790152 -0.123556 0.210326 0.0750523 0.299532
internal_weight=1794 652 1142 725 609 354 53 313 672 368 60 304 137 105 281 308 235 99 136 112 176 246 41 255 43 417 164 253 109 85
internal_count=1794 652 1142 725 609 354 53 313 672 368 60 304 137 105 281 308 235 99 136 112 176 246 41 255 43 417 164 253 109 85
cat_boundaries=0 1
cat_threshold=44
is_linear=0
shrinkage=0.05


Tree=18
num_leaves=31
num_cat=0
split_feature=6 5 0 6 1 6 4 5 1 1 4 5 1 4 0 6 3 3 5 1 0 6 0 5 4 6 0 4 5 5
split_gain=40975.6 22772.7 21630.5 12249 12598.6 12085.3 11507.6 8920.93 8467.56 10311.5 7440.92 6566.49 7075.03 7949.18 7008.15 6354.27 6890 11293.1 10067 6688.68 6132.65 5773.18 5746.7 5320.11 9016.89 5241.33 5566.27 4680.01 4657.06 4638.41
threshold=0.67400000000000015 3.0894500000000016 140.62150000000003 0.6666835000000001 68.915000000000006 0.56050000000000011 42.330000000000005 -0.95289999999999875 38.715000000000003 40.295000000000009 1.0000000180025095e-35 3.2100500000000016 18.650000000000002 71.855000000000004 201.81150000000002 0.48200000000000004 116.13799999999999 90.055999999999997 1.2514600000000005 18.650000000000002 353.24500000000006 0.33150000000000007 151.79200000000003 2.8228100000000014 36.900000000000006 0.60025000000000006 274.21249999999992 76.180000000000021 -1.2351499999999989 -0.41379999999999978
decision_type=2 2 2 2 2 2 2 2 2 2 2 2 2 2 2 2 2 2 2 2 2 2 2 2 2 2 2 2 2 2
left_child=1 3 23 4 5 7 -6 10 15 -10 -1 12 13 -4 -13 16 17 29 -18 -20 21 27 28 -2 -25 26 -3 -12 -7 -9
right_child=2 25 11 -5 6 22 -8 8 9 -11 20 14 -14 -15 -16 -17 18 -19 19 -21 -22 -23 -24 24 -26 -27 -28 -29 -30 -31
leaf_value=0.67571125548818844 0.5885833016278581 0.024278209901173711 -1.4239519393869811 -1.3021476527740217 1.37455313376018 -0.59402909868955611 -0.048049777915531944 -0.52564597612335573 -1.7999363257150567 -0.47621167907791756 -0.32531680260831491 -0.083518490493297584 0.11004193164408207 -0.04821181070236933 0.71109875267637634 -0.86135619220634307 0.83580152553816645 -1.0907938110931166 -1.0527121502420176 -0.096200564771555794 0.35899150235312327 -0.63329765470065547 0.77984071453412385 0.4621369890868664 1.5921718210708804 0.78767481998315658 0.52702225977554917 0.30900704119263628 0.26055401638150216 0.53830506205558781
leaf_weight=23 161 394 21 29 21 25 44 21 28 31 100 55 60 21 56 72 24 58 23 89 35 103 30 31 41 29 64 41 44 20
leaf_count=23 161 394 21 29 21 25 44 21 28 31 100 55 60 21 56 72 24 58 23 89 35 103 30 31 41 29 64 41 44 20
internal_value=2.61271e-09 -0.13745 0.415431 -0.292009 -0.2568 -0.313441 0.41156 -0.389847 -0.555825 -1.10442 -0.188695 0.0512446 -0.238362 -0.736082 0.317369 -0.450395 -0.324483 -0.641803 -0.0934926 -0.292627 -0.259955 -0.348738 0.20211 0.748357 1.10563 0.135806 0.0945307 -0.140868 -0.0490775 -0.00664547
internal_weight=1794 1348 446 861 832 767 65 668 366 59 302 213 102 42 111 307 235 99 136 112 279 244 99 233 72 487 458 141 69 41
internal_count=1794 1348 446 861 832 767 65 668 366 59 302 213 102 42 111 307 235 99 136 112 279 244 99 233 72 487 458 141 69 41
is_linear=0
shrinkage=0.05


Tree=19
num_leaves=31
num_cat=0
split_feature=6 5 2 6 1 6 4 5 1 1 4 2 6 3 3 5 6 0 3 0 6 6 2 4 0 2 0 5 4 5
split_gain=36980.5 20552.4 20021.1 11054.7 11370.2 10907 10385.6 8051.14 7641.98 9306.15 6715.43 6080.58 5734.73 6218.23 10192 9085.43 6144.6 5534.72 5432.74 5420.15 5210.29 4915.95 5203.95 4921.39 11384.9 4665.96 4269.79 4267.04 4223.71 4186.16
threshold=0.67400000000000015 3.0894500000000016 1.9320500000000005 0.6666835000000001 68.915000000000006 0.56050000000000011 42.330000000000005 -0.95289999999999875 38.715000000000003 40.295000000000009 1.0000000180025095e-35 -3.5294499999999975 0.48200000000000004 116.13799999999999 90.055999999999997 1.2514600000000005 0.2828500000000001 353.24500000000006 91.108000000000018 109.85600000000001 0.33150000000000007 0.50205000000000011 -0.35489999999999838 36.900000000000006 140.62150000000003 2.4166000000000007 152.94500000000002 4.1437600000000039 76.180000000000021 -0.41379999999999978
decision_type=2 2 2 2 2 2 2 2 2 2 2 2 2 2 2 2 2 2 2 2 2 2 2 2 2 2 2 2 2 2
left_child=1 3 11 4 5 7 -6 10 12 -10 -1 -2 13 14 29 -15 -17 20 -7 -13 28 22 -3 -23 -25 -4 -22 -24 -12 -9
right_child=2 21 25 -5 6 18 -8 8 9 -11 17 19 -14 15 -16 16 -18 -19 -20 -21 26 23 27 24 -26 -27 -28 -29 -30 -31
leaf_value=0.64192569774130126 -0.19953950420022012 -0.18601226370756319 -0.60938728230614814 -1.237040284173242 1.3058254747163682 0.88494476188312887 -0.04564728716981005 -0.49936368323507763 -1.7099395193159581 -0.45240110418488905 -0.30905096582323316 1.3625703513622285 -0.81828838694426753 0.79401146161059544 -1.0362541418651057 0.14193748044116158 -0.60461040810933198 0.34104191320283073 -0.0059786846304868725 0.62760943531433577 -0.7645463521524174 -0.16601285862922668 0.004246289887701842 1.6001980331811039 0.24714361020399012 0.075350245413562611 0.034505967050790787 0.42880075661078942 0.29355670068322159 0.51138982236385344
leaf_weight=23 20 147 31 29 21 22 44 21 28 31 100 28 72 24 58 49 63 35 77 241 82 25 134 22 53 126 21 106 41 20
leaf_count=23 20 147 31 29 21 22 44 21 28 31 100 28 72 24 58 49 63 35 77 241 82 25 134 22 53 126 21 106 41 20
internal_value=-7.82565e-10 -0.130577 0.39466 -0.277409 -0.24396 -0.297769 0.390982 -0.370355 -0.528034 -1.0492 -0.179261 0.641575 -0.427875 -0.308259 -0.609713 -0.088818 -0.277996 -0.246957 0.192004 0.704111 -0.331301 0.129016 0.0482638 0.441526 0.64404 -0.0598527 -0.601633 0.191758 -0.133825 -0.00631319
internal_weight=1794 1348 446 861 832 767 65 668 366 59 302 289 307 235 99 136 112 279 99 269 244 487 387 100 75 157 103 240 141 41
internal_count=1794 1348 446 861 832 767 65 668 366 59 302 289 307 235 99 136 112 279 99 269 244 487 387 100 75 157 103 240 141 41
is_linear=0
shrinkage=0.05


Tree=20
num_leaves=31
num_cat=1
split_feature=6 7 4 5 6 0 4 0 6 4 5 2 4 2 6 4 1 2 2 4 4 0 6 2 2 0 4 3 3 3
split_gain=33385.7 12969.9 19191.7 12509 10071.3 11986.4 9531.66 12365.6 8718.75 10843.9 8605.71 7180.65 6258.25 10890.2 10178.9 9532.4 15591.2 8188.7 18515.5 7134.38 6982.28 6751.7 9734.43 5093.7 4982.08 4888.96 7590.42 4936.63 4644.68 5364.37
threshold=0.50340000000000018 0 96.410000000000011 2.9416100000000016 0.49990000000000007 238.39499999999998 71.855000000000004 176.21200000000002 0.67400000000000015 63.765000000000015 -2.2953499999999978 -1.5581999999999978 40.795000000000009 -3.5294499999999975 0.36700000000000005 34.935000000000009 18.650000000000002 -2.5278999999999967 0.38848999999999984 1.0000000180025095e-35 45.135000000000005 180.18300000000002 0.20205000000000004 -0.35489999999999838 -0.35489999999999838 164.46250000000001 29.070000000000004 171.93800000000002 152.94500000000002 235.41149999999996
decision_type=2 9 2 2 2 2 2 2 2 2 2 2 2 2 2 2 2 2 2 2 2 2 2 2 2 2 2 2 2 2
left_child=3 2 8 4 6 11 12 -8 9 23 -4 -6 15 -14 20 16 -1 -17 -19 -18 -15 22 -21 28 -5 26 -10 -28 -2 -30
right_child=1 -3 10 24 5 -7 7 -9 25 -11 -12 -13 13 14 -16 17 19 18 -20 21 -22 -23 -24 -25 -26 -27 27 -29 29 -31
leaf_value=-1.2928004485505977 -0.15799956377063479 -0.014781617342960091 0.2343571819010235 -0.17921075211217008 -0.77082180802311218 0.18163099743071057 -0.076525351480592654 1.2885423583643778 0.49565758472560228 -0.58143044503465779 -1.126510974077078 -1.9235949958251284 0.38851942000565709 -1.5878457967485131 0.17883395169462479 -0.36483023747017512 0.55691428610256744 1.8213709437847136 -0.020072367024976154 0.10159629255178429 -0.69437171908824347 0.33604100875316134 -0.86387105074481685 1.1023990221023561 0.18611171679639141 0.38598694448739712 0.86821233835713629 1.5850106587451771 0.91674140752890176 -0.059710240364074713
leaf_weight=38 35 270 21 150 35 21 79 21 74 31 26 22 27 27 28 38 28 20 43 42 115 31 69 25 247 71 58 41 39 22
leaf_count=38 35 270 21 150 35 21 79 21 74 31 26 22 27 27 28 38 28 20 43 42 115 31 69 25 247 71 58 41 39 22
internal_value=-1.75568e-09 0.265587 0.427158 -0.175175 -0.304754 -0.839533 -0.235921 0.210139 0.550178 0.252927 -0.518464 -1.21575 -0.324075 -0.544301 -0.692454 -0.183673 -0.37719 0.214859 0.564513 -0.172525 -0.864258 -0.316358 -0.498559 0.466688 0.0480806 0.73535 0.878731 1.16507 0.301139 0.564579
internal_weight=1794 713 443 1081 684 78 606 100 396 152 47 57 506 197 170 309 208 101 63 170 142 142 111 121 397 244 173 99 96 61
internal_count=1794 713 443 1081 684 78 606 100 396 152 47 57 506 197 170 309 208 101 63 170 142 142 111 121 397 244 173 99 96 61
cat_boundaries=0 1
cat_threshold=44
is_linear=0
shrinkage=0.05


Tree=21
num_leaves=31
num_cat=0
split_feature=6 5 2 6 1 0 6 5 5 3 3 0 4 2 0 0 0 6 4 0 4 2 6 2 0 6 0 2 6 5
split_gain=30311.9 16972.6 16637 10155.8 9510.93 9110.96 9087.61 7221.24 7088.52 7001.69 6404.57 5734.42 5642.09 5194.6 4910.12 4866.2 5327.17 5202.22 9065.23 16707.1 4865.71 5772.77 14354.7 12270.4 5323.84 4792.78 4543.35 4155.37 3932.58 3886.08
threshold=0.67400000000000015 2.9416100000000016 1.9320500000000005 0.6666835000000001 68.915000000000006 201.81150000000002 0.56050000000000011 -0.95289999999999875 -0.82784999999999986 165.94200000000004 156.24700000000001 151.79200000000003 1.0000000180025095e-35 -3.5294499999999975 353.24500000000006 274.21249999999992 231.3595 0.49850000000000005 36.900000000000006 140.62150000000003 27.490000000000006 -1.5303999999999973 0.19950000000000004 1.2039500000000001 152.07000000000002 0.16633350000000005 109.85600000000001 2.4166000000000007 0.38200000000000006 -1.2351499999999989
decision_type=2 2 2 2 2 2 2 2 2 2 2 2 2 2 2 2 2 2 2 2 2 2 2 2 2 2 2 2 2 2
left_child=1 3 13 4 6 -6 7 12 -9 10 20 29 -1 -2 25 16 17 -3 -19 -20 24 -22 -23 -24 -10 -14 -15 -4 -17 -8
right_child=2 15 27 -5 5 -7 11 8 9 -11 -12 -13 14 26 -16 28 -18 18 19 -21 21 22 23 -25 -26 -27 -28 -29 -30 -31
leaf_value=0.59650368690490729 -0.19503862112760545 -0.015626660585403445 -0.57561523606700282 -1.1728187756099064 1.0192195873322158 -0.17163467423783407 -0.56523719364404679 -1.3368966207556103 -0.4225597139199575 -1.0993229879651751 0.15858323807809868 0.77022605106748387 0.22645207971737191 1.2430398393954549 0.3355756351351738 0.19926913227976822 -0.59003991097211839 -0.43978993302354452 1.660757546071653 0.17417296973012744 -0.58292377789188687 -1.0813166220982871 1.3432430290040518 -0.13125847411710165 -1.4105058562755586 -0.39138304163490378 0.57014580601169362 0.070572427902666351 0.97639111545350821 0.21869030719579655
leaf_weight=23 20 280 31 29 29 36 25 23 30 35 51 29 37 28 35 41 30 26 27 63 109 24 21 43 25 207 241 126 27 43
leaf_count=23 20 280 31 29 29 36 25 23 30 35 51 29 37 28 35 41 30 26 27 63 109 24 21 43 25 207 241 126 27 43
internal_value=-4.11751e-06 -0.118223 0.357304 -0.253161 -0.220834 0.35967 -0.270482 -0.336615 -0.487543 -0.429746 -0.352403 0.181539 -0.156201 0.582386 -0.218252 0.11505 0.0523525 0.101019 0.382576 0.620148 -0.455816 -0.339727 -0.0384956 0.352562 -0.871626 -0.297695 0.640187 -0.0570188 0.507832 -0.0695183
internal_weight=1794 1348 446 854 825 65 760 663 361 338 303 97 302 289 279 494 426 396 116 90 252 197 88 64 55 244 269 157 68 68
internal_count=1794 1348 446 854 825 65 760 663 361 338 303 97 302 289 279 494 426 396 116 90 252 197 88 64 55 244 269 157 68 68
is_linear=0
shrinkage=0.05


Tree=22
num_leaves=31
num_cat=0
split_feature=6 5 2 6 1 4 6 6 4 0 2 2 4 5 5 4 3 4 0 0 5 1 0 3 6 0 2 0 4 6
split_gain=27356.5 15367.8 15160 9188.66 8546.14 8985.96 8091.87 6688.1 12564 8967.69 7106.71 8990.95 8929.88 6632.21 6472.67 8979.06 6755.08 5820.29 6843.4 5814.61 5347.39 8643.54 6521.08 4808.61 3893.95 4225.72 3763.71 3526.83 7672.26 4933.98
threshold=0.67400000000000015 3.0894500000000016 -1.5581999999999978 0.6666835000000001 68.915000000000006 42.330000000000005 0.56050000000000011 0.40310000000000007 71.855000000000004 270.18049999999999 -3.2730999999999981 2.4355000000000007 47.930000000000007 -2.4447499999999995 -0.59434999999999993 29.070000000000004 235.41149999999996 1.0000000180025095e-35 109.85600000000001 121.1845 3.2100500000000016 18.650000000000002 201.81150000000002 91.108000000000018 0.60025000000000006 274.21249999999992 2.9486100000000017 353.24500000000006 46.290000000000006 0.10915000000000001
decision_type=2 2 2 2 2 2 2 2 2 2 2 2 2 2 2 2 2 2 2 2 2 2 2 2 2 2 2 2 2 2
left_child=1 3 14 4 6 -6 7 8 17 10 12 -12 -9 -10 -2 16 -16 -1 -19 -20 21 -4 -22 -8 25 -3 -24 29 -29 -21
right_child=2 24 20 -5 5 -7 23 9 13 -11 11 -13 -14 -15 15 -17 -18 18 19 27 22 -23 26 -25 -26 -27 -28 28 -30 -31
leaf_value=0.37958811698136508 0.37834144491793181 0.015375458569677198 -0.84894305798742509 -1.1141778508137012 1.1926520924483028 -0.06445683135905049 0.81834653832695714 0.18004858528866488 -0.16769662201404573 0.34713098786093971 -1.687168399376028 -0.40717729718788809 -0.85813743404622356 0.78776974940583822 0.98063923148881826 1.2903463530162025 -0.28756901969512305 0.42221388387680059 -1.1390090041690404 0.21570746994887791 -0.079675537371076646 0.12510787922167971 1.0839566365436271 -0.019839574183736528 0.67403124498909917 0.45341667595785112 0.2636219058057358 -1.177191133134895 0.044213380813598636 -0.38831511992286516
leaf_weight=27 123 394 36 29 21 44 22 34 32 22 34 23 53 42 21 63 21 25 27 39 64 62 27 77 29 64 29 36 20 254
leaf_count=27 123 394 36 29 21 44 22 34 32 22 34 23 53 42 21 63 21 25 27 39 64 62 27 77 29 64 29 36 20 254
internal_value=-3.912e-06 -0.112312 0.339439 -0.23928 -0.208785 0.341686 -0.255435 -0.317956 -0.226978 -0.593082 -0.736725 -1.17068 -0.45241 0.374595 0.624484 0.912822 0.346535 -0.330989 -0.378833 -0.432094 0.0413182 -0.232707 0.265105 0.166424 0.112163 0.0765865 0.65914 -0.377404 -0.740975 -0.307916
internal_weight=1794 1348 446 861 832 65 767 668 502 166 144 57 87 74 228 105 42 428 401 376 218 98 120 99 487 458 56 349 56 293
internal_count=1794 1348 446 861 832 65 767 668 502 166 144 57 87 74 228 105 42 428 401 376 218 98 120 99 487 458 56 349 56 293
is_linear=0
shrinkage=0.05


Tree=23
num_leaves=31
num_cat=1
split_feature=6 7 4 5 5 2 3 5 1 5 6 6 5 6 4 5 6 0 6 5 0 6 0 3 4 6 4 2 5 5
split_gain=25026.8 10805.8 16002.6 9275.66 14393.8 12189.8 10723.4 9145.84 8413.45 11052.1 8383.09 8006.29 6749.6 6746.77 8497.38 8490 5897.06 5874.12 5647.92 5438.48 7578.05 5167.62 4837.37 5499.49 4748.65 4570.31 4367.07 4362.61 4307.24 11579.1
threshold=0.50340000000000018 0 96.410000000000011 2.4166000000000007 1.3119000000000003 2.1504000000000003 165.94200000000004 0.4437000000000007 68.915000000000006 -0.95289999999999875 0.24600000000000002 0.79720000000000013 1.6101000000000003 0.70020000000000004 43.555000000000007 -0.9860000000000001 0.89985000000000015 238.39499999999998 0.49850000000000005 0.16294999999999996 109.85600000000001 0.65550000000000008 222.05999999999997 154.93899999999999 1.0000000180025095e-35 0.38200000000000006 112.72000000000003 -1.5581999999999978 -2.6602499999999969 -1.9009999999999987
decision_type=2 9 2 2 2 2 2 2 2 2 2 2 2 2 2 2 2 2 2 2 2 2 2 2 2 2 2 2 2 2
left_child=3 2 13 4 5 7 12 8 9 18 -10 -4 -6 14 -2 -16 -15 22 24 20 -11 -17 23 -5 -1 -19 28 -22 -26 -30
right_child=1 -3 11 17 6 -7 -8 -9 10 19 -12 -13 -14 16 15 21 -18 25 -20 -21 27 -23 -24 -25 26 -27 -28 -29 29 -31
leaf_value=0.57976765859694712 0.52749344040639701 -0.025119022314569778 -1.1251679236690204 -0.75092452859878545 -1.2762320297104974 0.87214103249403152 -1.8057252635126528 0.52791094850334852 -0.49352354258298875 -0.12993303480602444 0.8194660004108183 0.18029631117115852 -0.17837668586344946 0.85219116151932894 0.71856242895126343 -0.0034017889545514034 0.21494494838019215 0.12884125534721927 -0.97544252438978729 -0.157271698889909 -0.81363275204386043 -1.0102026576995848 -0.79997436810623523 0.018238714657499894 -0.78194381428572046 0.85201228895495018 0.37040088896093698 -1.5975807030995688 0.81446747541427611 -0.34893597612610544
leaf_weight=21 128 270 24 25 21 26 23 36 20 21 31 23 42 149 20 26 48 74 22 27 35 25 22 330 36 31 29 36 25 148
leaf_count=21 128 270 24 25 21 26 23 36 20 21 31 23 42 149 20 26 48 74 22 27 35 25 22 330 36 31 29 36 25 148
internal_value=-3.71666e-06 0.229944 0.377447 -0.151671 -0.283055 -0.1827 -0.881679 -0.239016 -0.300235 -0.377347 0.304568 -0.486324 -0.544328 0.489497 0.284155 -0.154539 0.696923 0.0116034 -0.206312 -0.781218 -0.964333 -0.496932 -0.080514 -0.0359277 -0.140981 0.342349 -0.204576 -1.21113 -0.284358 -0.180814
internal_weight=1794 713 443 1081 599 513 86 487 451 400 51 47 63 396 199 71 197 482 281 119 92 51 377 355 259 105 238 71 209 173
internal_count=1794 713 443 1081 599 513 86 487 451 400 51 47 63 396 199 71 197 482 281 119 92 51 377 355 259 105 238 71 209 173
cat_boundaries=0 1
cat_threshold=44
is_linear=0
shrinkage=0.05


Tree=24
num_leaves=31
num_cat=1
split_feature=6 0 5 5 2 3 5 1 5 6 7 4 6 5 5 6 0 6 4 5 0 2 0 0 3 4 6 1 4 2
split_gain=22584.5 9768.15 8371.28 12990.4 11001.3 9677.89 8254.12 7593.14 9974.57 7565.74 6303.3 12349.1 7793.55 7606.11 6091.52 5695.93 5301.39 5097.25 5056.62 4908.23 6839.19 4795.77 6639.3 4365.73 4963.29 4285.65 4124.71 4115.28 3941.28 3937.26
threshold=0.50340000000000018 109.85600000000001 2.4166000000000007 1.3119000000000003 2.1504000000000003 165.94200000000004 0.4437000000000007 68.915000000000006 -0.95289999999999875 0.24600000000000002 0 96.410000000000011 0.70020000000000004 -2.2953499999999978 1.6101000000000003 0.74865000000000015 238.39499999999998 0.49850000000000005 36.900000000000006 0.16294999999999996 109.85600000000001 -0.35489999999999838 157.17050000000003 222.05999999999997 154.93899999999999 1.0000000180025095e-35 0.38200000000000006 18.650000000000002 112.72000000000003 -1.5581999999999978
decision_type=2 2 2 2 2 2 2 2 2 2 9 2 2 2 2 2 2 2 2 2 2 2 2 2 2 2 2 2 2 2
left_child=2 18 3 4 6 14 7 8 17 -9 11 12 21 -13 -5 -14 23 25 -2 20 -10 22 -3 24 -4 -1 -18 -17 -27 -22
right_child=1 10 16 5 -6 -7 -8 9 19 -11 -12 13 15 -15 -16 27 26 -19 -20 -21 29 -23 -24 -25 -26 28 -28 -29 -30 -31
leaf_value=0.55077926999046689 0.44388055895765621 0.17815059541301295 -0.7133783109188081 -1.2124203806831724 0.82853398621082308 -1.7154389930808027 0.50151536340514824 -0.46884736344218259 -0.12343638709613257 0.77849270715828878 -0.023907924839960681 0.24574174700038776 1.3175858025367444 -1.0336511914546673 -0.16945785720433509 0.066336245717186687 0.12239919012865506 -0.92667041258378458 1.4292826945367068 -0.14940812808495982 -0.77295112337384908 0.67788545089108609 -0.77335271903059699 -0.75997563139958824 0.017326775942929092 -0.27014006309603394 0.80941167550702253 0.66849978261826826 0.35188084409154696 -1.5177016844352087
leaf_weight=21 30 110 25 21 26 23 36 20 21 31 270 21 26 26 42 38 74 22 23 27 35 35 22 22 330 209 31 112 29 36
leaf_count=21 30 110 25 21 26 23 36 20 21 31 270 21 26 26 42 38 74 22 23 27 35 35 22 22 330 209 31 112 29 36
internal_value=-1.05328e-05 0.218429 -0.144088 -0.268902 -0.173565 -0.837595 -0.227066 -0.285223 -0.35848 0.28934 0.165985 0.290611 0.402212 -0.462008 -0.517112 0.634375 0.0110233 -0.195997 0.871508 -0.742157 -0.916116 0.157538 0.0195667 -0.0764883 -0.0341313 -0.133932 0.325231 0.515952 -0.194348 -1.15057
internal_weight=1794 713 1081 599 513 86 487 451 400 51 660 390 343 47 63 176 482 281 53 119 92 167 132 377 355 259 105 150 238 71
internal_count=1794 713 1081 599 513 86 487 451 400 51 660 390 343 47 63 176 482 281 53 119 92 167 132 377 355 259 105 150 238 71
cat_boundaries=0 1
cat_threshold=44
is_linear=0
shrinkage=0.05


Tree=25
num_leaves=31
num_cat=0
split_feature=6 2 6 5 6 5 5 4 2 2 6 3 2 3 4 6 6 0 6 6 4 4 6 5 1 0 2 2 4 0
split_gain=20396.3 12050.8 11928.1 10225.7 7025.45 6834.27 13662.4 9517.4 13734 11377.6 28910.6 9599.7 9724.95 7465.91 5988.81 7328.8 7157.15 5709.21 36115.3 8966.4 5304.85 8403.35 5754.91 4636.61 7959.22 5488.68 4533.74 6432.37 9401.18 4076.99
threshold=0.67400000000000015 -1.5581999999999978 0.6666835000000001 3.0894500000000016 0.60025000000000006 1.3119000000000003 1.6101000000000003 40.795000000000009 2.1504000000000003 -2.5278999999999967 0.25020000000000003 180.15750000000003 -3.5294499999999975 177.97500000000002 1.0000000180025095e-35 0.50855000000000017 0.39735000000000004 324.41850000000005 0.19950000000000004 0.12850000000000003 29.070000000000004 38.880000000000003 0.78600000000000014 3.2100500000000016 18.650000000000002 194.96950000000001 2.9486100000000017 2.2932000000000006 36.900000000000006 121.1845
decision_type=2 2 2 2 2 2 2 2 2 2 2 2 2 2 2 2 2 2 2 2 2 2 2 2 2 2 2 2 2 2
left_child=2 20 3 5 -5 7 -7 9 11 14 -11 12 -9 26 -1 16 -16 19 -19 -14 -2 -22 -23 24 -3 -25 27 -8 -29 -21
right_child=1 23 -4 4 -6 6 13 8 -10 10 -12 -13 17 -15 15 -17 -18 18 -20 29 21 22 -24 25 -26 -27 -28 28 -30 -31
leaf_value=0.5128840554612023 0.24581356451878056 -0.81921879765060224 -1.0216218337854919 0.066491512041010267 0.94408246427774434 -1.3441593562855441 0.14046417299658062 0.34488610947454301 0.94234388237414157 -0.24028252549469473 1.8613584246238073 0.31411506641083042 0.39199068039655688 -1.0478854126930237 -0.15347344366027349 0.46949455106052862 -1.0937144813866453 -1.5646573729643769 1.121864847890262 -1.3150770699977876 1.3310188736234394 0.01472821579529689 0.80019715346139053 -0.091394324937174407 0.11547868718062677 0.58528782437587601 0.34904904010204169 -1.2532843206326167 -0.0015402074344456197 -0.63585462460885633
leaf_weight=35 89 36 34 458 24 34 50 37 23 36 30 52 20 25 67 29 29 22 29 25 42 39 58 62 62 58 39 30 30 190
leaf_count=35 89 36 34 458 24 34 50 37 23 36 30 52 20 25 67 29 29 22 29 25 42 39 58 62 62 58 39 30 30 190
internal_value=-1.66697e-05 0.293081 -0.0969911 -0.0730661 0.110189 -0.179231 -0.427438 -0.0964948 -0.243641 0.162639 0.715009 -0.316382 -0.417886 -0.248309 -0.0652135 -0.227081 -0.437505 -0.516566 -0.0370271 -0.620636 0.547219 0.740206 0.48439 0.0272846 -0.22788 0.235669 -0.114152 -0.278378 -0.627412 -0.714834
internal_weight=1794 446 1348 1314 482 832 208 624 398 226 66 375 323 174 160 125 96 286 51 235 228 139 97 218 98 120 149 110 60 215
internal_count=1794 446 1348 1314 482 832 208 624 398 226 66 375 323 174 160 125 96 286 51 235 228 139 97 218 98 120 149 110 60 215
is_linear=0
shrinkage=0.05


Tree=26
num_leaves=31
num_cat=1
split_feature=6 7 4 6 0 4 1 6 3 3 6 5 5 5 6 1 1 5 3 3 6 1 6 3 2 3 4 0 0 4
split_gain=18777.6 8474.66 12680.2 7279.95 8884.17 8169.73 7328.89 7251.02 6242.95 9611.43 4973.34 6560.48 10190 7752.07 5122.2 4279.73 6015.68 5807.13 18080.9 8445.8 10707 13023.2 9702.63 4452.22 4070.07 5190.21 3823.54 4011.72 3723.27 3562.61
threshold=0.50340000000000018 0 96.410000000000011 0.49990000000000007 266.35600000000005 56.32500000000001 29.190000000000005 0.79720000000000013 170.941 162.91850000000002 0.70020000000000004 3.0894500000000016 0.69630000000000014 5.1160500000000058 0.89985000000000015 40.295000000000009 38.715000000000003 -1.737699999999998 138.874 116.13799999999999 0.15900000000000003 1.0000000180025095e-35 0.32900000000000007 75.067000000000021 1.9320500000000005 218.02000000000004 36.900000000000006 180.18300000000002 280.19599999999997 63.765000000000015
decision_type=2 9 2 2 2 2 2 2 2 2 2 2 2 2 2 2 2 2 2 2 2 2 2 2 2 2 2 2 2 2
left_child=3 2 10 8 5 6 -5 -4 9 15 11 12 29 -13 -12 16 17 18 -1 20 -19 22 -22 -17 -10 -26 27 -21 -3 -2
right_child=1 28 7 4 -6 -7 -8 -9 24 -11 14 13 -14 -15 -16 23 -18 19 -20 26 21 -23 -24 -25 25 -27 -28 -29 -30 -31
leaf_value=1.4697172834404879 0.48247935098376787 0.025118913761898877 -1.0471946390345692 0.041506817603581832 0.39333279024470941 -1.3551525090679979 -1.1223880475120884 0.19516939702241318 -0.065270930544218037 -1.2522846846353441 0.75220617885457597 1.1397509276665545 -0.80237275617463255 0.085679756511341451 0.15830029430799186 -0.066096371594740425 -0.92844203958021743 -1.2631912939889092 -0.30707224051157639 -0.6668104561105852 -0.16146196061372758 -0.70769049275753115 1.1415961627662181 0.79010931262323125 0.038368696694807067 0.62346259469197973 0.24892891765298214 0.15885019467345307 -0.68385345457121738 -0.15066571831703188
leaf_weight=21 68 250 24 38 22 33 21 23 281 21 149 37 28 33 48 49 28 35 45 31 50 86 20 22 106 59 85 28 20 33
leaf_count=21 68 250 24 38 22 33 21 23 281 21 149 37 28 33 48 49 28 35 45 31 50 86 20 22 106 59 85 28 20 33
internal_value=-1.58342e-05 0.199165 0.329805 -0.13139 -0.509295 -0.72514 -0.372761 -0.439229 -0.0868389 -0.204383 0.429408 0.253108 0.0416294 0.642832 0.607498 -0.160371 -0.219882 -0.170406 0.25827 -0.254862 -0.472849 -0.295529 0.21084 0.199207 0.0504714 0.247584 0.0342753 -0.274972 -0.0264191 0.27561
internal_weight=1794 713 443 1081 114 92 59 47 967 521 396 199 129 70 197 500 429 401 66 335 191 156 70 71 446 165 144 59 270 101
internal_count=1794 713 443 1081 114 92 59 47 967 521 396 199 129 70 197 500 429 401 66 335 191 156 70 71 446 165 144 59 270 101
cat_boundaries=0 1
cat_threshold=44
is_linear=0
shrinkage=0.05


Tree=27
num_leaves=31
num_cat=0
split_feature=6 2 5 5 5 5 6 2 3 5 4 5 2 2 3 3 6 4 5 3 1 6 1 5 3 1 3 6 3 4
split_gain=16946.8 7818.08 8771.58 10381.9 7926.2 7207.71 6570.15 8046.94 7590.77 6343.9 6332 6272.52 6025.07 6744.41 5634.26 8674.32 5129.34 8511.85 7820.16 3985.76 3720.26 6456.74 5755.29 5583.89 17859.9 6123.67 6295.36 7635.46 12311.9 7854.44
threshold=0.50340000000000018 1.2039500000000001 2.4355000000000016 0.49129999999999996 5.1160500000000058 0.06245000000000004 0.49990000000000007 2.8023000000000011 116.13799999999999 1.2869900000000001 36.900000000000006 4.1437600000000039 3.2603000000000022 5.4892500000000064 170.941 162.91850000000002 0.76265000000000016 63.765000000000015 -2.2953499999999978 152.94500000000002 48.735000000000007 0.22555000000000003 38.715000000000003 -1.737699999999998 138.874 20.965000000000003 116.13799999999999 0.33315000000000006 104.57700000000001 50.685000000000009
decision_type=2 2 2 2 2 2 2 2 2 2 2 2 2 2 2 2 2 2 2 2 2 2 2 2 2 2 2 2 2 2
left_child=6 2 3 5 -4 16 14 8 -8 -5 -6 12 -3 -14 15 19 17 -2 -19 20 22 -22 23 24 -1 26 27 28 -25 -29
right_child=1 11 4 9 10 -7 7 -9 -10 -11 -12 -13 13 -15 -16 -17 -18 18 -20 -21 21 -23 -24 25 -26 -27 -28 29 -30 -31
leaf_value=1.3962314021019708 0.34138659797899895 -0.39388560677978623 0.92184519416756106 -1.184095062528338 -0.4275674526691437 1.141515880281275 0.00066419086522526215 0.32965300977230072 -1.0013686882243271 0.030863319760696457 0.60249925561853368 0.36952377384987434 0.76700464425415837 -0.29380588781449107 0.047947829818528465 -1.1896704645383926 0.52275699868246361 0.1857054407708347 -0.88169288925222455 0.24514829336798619 -0.57203066132285385 0.46583441952441601 -0.98222289085388192 -0.50703941015970144 -0.46903197675040276 0.45197181749343873 -0.046141692965614552 0.68900014324621717 -1.7622788735975821 -0.66288858425049557
leaf_weight=21 96 121 90 21 25 22 27 24 63 22 37 69 29 31 446 21 81 32 37 56 22 47 26 105 33 25 98 22 24 21
leaf_count=21 96 121 90 21 25 22 27 24 63 22 37 69 29 31 446 21 81 32 37 56 22 47 26 105 33 25 98 22 24 21
internal_value=-1.50447e-05 0.189206 0.310868 0.158723 0.622167 0.274439 -0.124821 -0.48383 -0.700759 -0.562488 0.18715 -0.0361115 -0.190746 0.218919 -0.082497 -0.194164 0.196896 0.0369276 -0.386668 -0.152352 -0.202488 0.134921 -0.264571 -0.211107 0.256348 -0.296675 -0.365994 -0.548235 -0.740572 0.0287754
internal_weight=1794 713 463 311 152 268 1081 114 90 43 62 250 181 60 967 521 246 165 69 500 444 69 375 349 54 295 270 172 129 43
internal_count=1794 713 463 311 152 268 1081 114 90 43 62 250 181 60 967 521 246 165 69 500 444 69 375 349 54 295 270 172 129 43
is_linear=0
shrinkage=0.05


Tree=28
num_leaves=31
num_cat=0
split_feature=6 0 2 0 6 1 5 0 6 4 6 3 6 4 2 1 6 6 6 0 6 1 1 5 5 4 3 2 3 3
split_gain=15294.5 7336.4 5940.16 12998 9062.52 7099.91 5582.36 4552.12 7089.12 9076.91 5548.69 6883.44 6133.11 4184.6 4070.75 9354.75 3764.02 4441.59 4932.69 10978.4 11271.1 5920.11 4525.52 8810.04 6720.7 3790.28 12603.4 6190.11 12266 4012.32
threshold=0.50340000000000018 109.85600000000001 2.6639200000000014 380.87600000000003 0.49990000000000007 1.0000000180025095e-35 6.2863500000000085 140.62150000000003 0.76265000000000016 105.76500000000003 0.60905000000000009 154.93899999999999 0.67080000000000017 36.900000000000006 3.2603000000000022 20.965000000000003 0.095700000000000021 0.11105000000000002 0.14292850000000004 274.21249999999992 0.33331650000000007 68.915000000000006 38.715000000000003 -0.95289999999999875 2.3195400000000008 38.880000000000003 122.145 -3.5294499999999975 117.12400000000001 152.94500000000002
decision_type=2 2 2 2 2 2 2 2 2 2 2 2 2 2 2 2 2 2 2 2 2 2 2 2 2 2 2 2 2 2
left_child=2 13 4 14 16 -6 7 8 9 -3 11 -9 -12 -2 -4 -16 -1 -18 -19 21 -21 22 25 -24 -25 26 -20 -27 -29 -28
right_child=1 6 3 -5 5 -7 -8 10 -10 -11 12 -13 -14 -15 15 -17 17 18 19 20 -22 -23 23 24 -26 27 29 28 -30 -31
leaf_value=-0.73679636527473735 0.35671435634295151 0.17740583954596081 0.045552178740501409 -0.77320642516468518 0.15151263447034927 -0.90027324091643102 0.88286178310712193 1.1097496146247501 0.53193768375804507 -0.88364900220995368 -0.73891191418106494 0.062365051995842691 -0.039226321248775897 1.253132145042005 1.245062650788215 0.1624554599502257 0.24693908003533671 -0.7693355902036032 0.84023021564764133 0.056018868965261127 1.2975848960876466 0.60790265419266443 0.27719085007905958 -1.454388929852124 -0.26297878377139566 0.30816331423562149 -0.61818905476142061 -0.98243954273707734 -0.063693560526157031 -0.09593158570392657
leaf_weight=24 30 163 75 33 21 68 24 21 126 23 37 62 204 23 31 56 82 30 34 68 25 22 20 29 20 29 44 68 78 224
leaf_count=24 30 163 75 33 21 68 24 21 126 23 37 62 204 23 31 56 82 30 34 68 25 22 20 29 20 29 44 68 78 224
internal_value=-1.4293e-05 0.179746 -0.11858 0.131257 -0.173566 -0.652099 0.134296 0.106048 0.242363 0.0462001 -0.0252177 0.327366 -0.146647 0.745726 0.315499 0.548212 -0.120129 -0.100983 -0.14227 -0.11381 0.389773 -0.196263 -0.228666 -0.607145 -0.968099 -0.173917 -0.0666264 -0.35907 -0.491603 -0.181675
internal_weight=1794 713 1081 195 886 89 660 636 312 186 324 83 241 53 162 87 797 773 691 661 93 568 546 69 49 477 302 175 146 268
internal_count=1794 713 1081 195 886 89 660 636 312 186 324 83 241 53 162 87 797 773 691 661 93 568 546 69 49 477 302 175 146 268
is_linear=0
shrinkage=0.05


Tree=29
num_leaves=31
num_cat=0
split_feature=6 0 3 3 6 4 1 4 0 5 4 4 2 1 5 2 2 2 6 4 5 3 2 4 6 4 1 4 2 2
split_gain=13803.3 6621.1 5510.42 6781.55 5058.52 7437.74 8314.21 9878.82 7317.74 6850.26 5693.65 10987.2 8313.71 8242.93 5038.08 4127.62 5339.18 8819.92 6604.9 6551.58 4608.68 4062.2 5320.35 6645.41 4183.43 3776.6 3760.55 3459.25 3454.3 3853.1
threshold=0.50340000000000018 109.85600000000001 169.078 162.91850000000002 0.41100000000000003 71.855000000000004 40.295000000000009 42.330000000000005 238.39499999999998 -0.15595000000000003 38.880000000000003 34.935000000000009 -3.5294499999999975 18.650000000000002 6.2863500000000085 1.2039500000000001 -0.35489999999999838 -1.3082499999999968 0.76265000000000016 105.76500000000003 3.2100500000000016 120.13099999999997 1.9320500000000005 46.290000000000006 0.24950000000000003 36.900000000000006 38.715000000000003 36.900000000000006 -0.35489999999999838 -1.5581999999999978
decision_type=2 2 2 2 2 2 2 2 2 2 2 2 2 2 2 2 2 2 2 2 2 2 2 2 2 2 2 2 2 2
left_child=2 25 3 4 5 6 10 -8 9 -6 11 13 -12 -1 15 16 17 18 19 -3 -17 22 23 -14 -25 -2 27 -20 29 -4
right_child=1 14 28 -5 8 -7 7 -9 -10 -11 12 -13 21 -15 -16 20 -18 -19 26 -21 -22 -23 -24 24 -26 -27 -28 -29 -30 -31
leaf_value=-1.005964249660892 0.33887864351272584 0.15115699927859091 -0.012981967861947425 -1.0586042922476064 -1.2508883541656866 0.47625038841118417 1.0933475813040368 -0.17148817071789191 0.23280516907572749 -0.28839837610721591 0.30532787709400577 0.6443037348731262 -1.3039506726861001 -0.065762584696107726 0.83871869953970113 -0.2913057663453662 0.89249525654774442 -0.79696452513985017 0.28991081323474649 -0.65742649626115279 0.14728571975827218 -0.020702975988388064 -0.090019317651883923 0.047981450813157217 -0.86023498997092251 1.1904755388912949 -0.092772630893665817 0.85332989205443666 0.13950640739695658 -0.47612868950276055
leaf_weight=31 30 184 188 23 36 48 26 38 25 38 29 41 50 94 24 115 26 23 48 29 125 24 26 21 32 23 23 63 252 59
leaf_count=31 30 184 188 23 36 48 26 38 25 38 29 41 50 94 24 115 26 23 48 29 125 24 26 21 32 23 23 63 252 59
internal_value=-1.35785e-05 0.170759 -0.112651 -0.21718 -0.18256 -0.112782 -0.181408 0.342351 -0.506778 -0.756637 -0.277731 -0.0659646 -0.470881 -0.298933 0.127581 0.100746 0.199909 0.151241 0.21409 0.0410682 -0.0628727 -0.618005 -0.729131 -0.890461 -0.500376 0.70844 0.489117 0.609689 0.00926535 -0.123612
internal_weight=1794 713 1081 582 559 460 412 64 99 74 348 166 182 125 660 636 396 370 347 213 240 153 129 103 53 53 134 111 499 247
internal_count=1794 713 1081 582 559 460 412 64 99 74 348 166 182 125 660 636 396 370 347 213 240 153 129 103 53 53 134 111 499 247
is_linear=0
shrinkage=0.05


Tree=30
num_leaves=31
num_cat=1
split_feature=0 0 6 4 5 7 4 2 5 2 6 3 1 6 0 6 6 2 6 1 3 5 4 2 6 0 6 2 5 5
split_gain=13032.8 24485.4 13660.9 7892.67 13886 8072.08 7067.28 6923.87 10623.6 9427.03 12273.1 6896.32 6361.13 6939.32 5908.04 7852.58 6142.27 7275.19 6741.39 4847.11 3695.21 4644.06 3593.95 5067.68 3522.86 3030.71 2970.12 2948.82 5540.2 4245.38
threshold=380.87600000000003 357.27500000000003 0.50340000000000018 63.765000000000015 -2.2953499999999978 0 40.795000000000009 -3.1007099999999994 -1.4972499999999977 1.0000000180025095e-35 0.19950000000000004 111.575 20.965000000000003 0.21830000000000002 270.18049999999999 0.35400000000000004 0.33650000000000008 3.2603000000000022 0.30355000000000004 29.190000000000005 117.12400000000001 -2.4447499999999995 34.935000000000009 -2.706949999999996 0.7088000000000001 140.62150000000003 0.69715000000000005 3.2603000000000022 0.49129999999999996 -1.2351499999999989
decision_type=2 2 2 2 2 9 2 2 2 2 2 2 2 2 2 2 2 2 2 2 2 2 2 2 2 2 2 2 2 2
left_child=1 2 6 5 26 -4 14 12 -9 -10 -11 -2 13 -8 16 -16 18 19 -1 22 -15 -22 23 -18 -6 -20 -5 28 29 -7
right_child=11 -3 3 4 24 27 7 8 9 10 -12 -13 -14 20 15 -17 17 -19 25 -21 21 -23 -24 -25 -26 -27 -28 -29 -30 -31
leaf_value=-0.036125218482502372 -1.3758438837404052 1.5789308136925102 0.46432594067764055 0.0024371133744716649 -0.92004875581711532 0.00072881736118217996 0.1954563217271458 0.13247187330442317 -1.6641512481229648 -1.5336116468906402 0.011199016186098259 -0.29322106053954677 0.48234340416666655 -0.899752147133286 0.045413166260527028 1.0670427427592653 -0.21154676851901144 0.63156435914337639 0.26215170587279968 -0.84031873574090565 -0.79592667520046234 0.040738828549551409 -0.063749122087444585 -1.1147742590246101 -0.25221422375776831 1.0680283546447755 0.78905944724877675 0.41909777524898639 -0.18047707272393088 0.63642088770866401
leaf_weight=331 24 25 245 20 40 58 55 34 28 20 36 38 35 37 62 27 44 20 28 43 27 43 105 24 39 20 30 53 155 48
leaf_count=331 24 25 245 20 40 58 55 34 28 20 36 38 35 37 62 27 44 20 28 43 27 43 105 24 39 20 30 53 155 48
internal_value=-1.2898e-05 0.0254847 0.00273359 0.174875 -0.177657 0.256229 -0.113491 -0.310344 -0.613231 -0.915063 -0.540519 -0.712301 -0.128919 -0.260981 -0.0254113 0.355346 -0.0805128 -0.280757 0.0441778 -0.365231 -0.495599 -0.281975 -0.247146 -0.530333 -0.590358 0.597934 0.474411 0.0766318 0.010025 0.288589
internal_weight=1794 1732 1707 688 129 559 1019 315 118 84 56 62 197 162 704 89 615 236 379 216 107 70 173 68 79 48 50 314 261 106
internal_count=1794 1732 1707 688 129 559 1019 315 118 84 56 62 197 162 704 89 615 236 379 216 107 70 173 68 79 48 50 314 261 106
cat_boundaries=0 1
cat_threshold=12
is_linear=0
shrinkage=0.05


Tree=31
num_leaves=31
num_cat=1
split_feature=0 0 6 4 5 7 4 4 2 3 0 6 6 0 4 6 2 6 4 6 0 2 0 6 5 2 2 0 4 3
split_gain=11766.6 22094 12359.3 7137.5 12532.1 7321.82 6378.22 6450.85 7392.41 6223.93 5332.01 7086.95 5543.4 7095.36 9383.43 6084.1 5143.67 4269.05 7883.29 5447.17 4853.4 4240.23 3853.26 3179.38 2963.47 2955.16 2867.62 12477.9 6140.37 9640.32
threshold=380.87600000000003 357.27500000000003 0.50340000000000018 63.765000000000015 -2.2953499999999978 0 40.795000000000009 112.72000000000003 -3.5294499999999975 111.575 270.18049999999999 0.35400000000000004 0.33650000000000008 231.3595 34.935000000000009 0.30355000000000004 -3.2730999999999981 0.49990000000000007 45.135000000000005 0.11950000000000001 324.41850000000005 -0.35489999999999838 180.93650000000002 0.7088000000000001 -1.1200999999999983 -1.5581999999999978 -0.35489999999999838 164.46250000000001 29.070000000000004 171.93800000000002
decision_type=2 2 2 2 2 9 2 2 2 2 2 2 2 2 2 2 2 2 2 2 2 2 2 2 2 2 2 2 2 2
left_child=1 2 6 5 -5 26 10 8 -8 -2 12 -12 15 14 16 -1 24 18 -10 -20 22 25 -21 -6 -14 -16 27 28 -4 -30
right_child=9 -3 3 4 23 -7 7 -9 17 -11 11 -13 13 -15 21 -17 -18 -19 19 20 -22 -23 -24 -25 -26 -27 -28 -29 29 -31
leaf_value=-0.034318957853150693 -1.3070516839623452 1.499984269142151 0.0077954419634558951 0.45068996447324755 -0.87404630762524915 0.07280022633034898 0.35692236661911014 0.282046343563568 -1.2857503164898265 -0.27856000238343287 0.043142505326578699 1.0136906131550119 -0.69240753173828129 -1.1676951742172241 0.042298424123106776 0.56803696596374109 -1.0287970732701452 -0.99459176629453028 0.40180444431304929 -0.36556088074639037 0.29922923201864421 0.3329909855678474 -1.0128344459780332 -0.23960351424339491 0.12415872931480408 -0.67942563554515012 0.77072445556782843 -0.7530639735135165 0.24497857961182792 1.1340245416568171
leaf_weight=331 24 25 44 50 40 314 30 42 22 38 62 27 20 20 37 48 38 34 25 111 22 73 29 39 25 23 57 22 60 62
leaf_count=331 24 25 44 50 40 314 30 42 22 38 62 27 20 20 37 48 38 34 25 111 22 73 29 39 25 23 57 22 60 62
internal_value=0.000117157 0.0243445 0.00273292 0.166469 -0.168774 0.243833 -0.107817 -0.294826 -0.383576 -0.676686 -0.0241408 0.337578 -0.0764871 -0.266719 -0.183296 0.0419689 -0.600464 -0.474996 -0.390468 -0.285141 -0.391151 0.0770421 -0.499639 -0.56084 -0.23876 -0.234362 0.44202 0.365871 0.514164 0.696789
internal_weight=1794 1732 1707 688 129 559 1019 315 273 62 704 89 615 236 216 379 83 243 209 187 162 133 140 79 45 60 245 188 166 122
internal_count=1794 1732 1707 688 129 559 1019 315 273 62 704 89 615 236 216 379 83 243 209 187 162 133 140 79 45 60 245 188 166 122
cat_boundaries=0 1
cat_threshold=12
is_linear=0
shrinkage=0.05


Tree=32
num_leaves=31
num_cat=1
split_feature=0 0 6 4 5 7 4 4 2 3 3 6 2 2 1 0 0 4 0 0 6 0 6 2 2 5 6 6 2 5
split_gain=10620 19939.3 11158.8 6443.73 11310.3 6603.21 5756.34 5821.9 6671.65 5617.1 4841.15 7606.52 17336.2 4946.94 11053.4 4670.54 4050.75 5949.21 5857.37 8992.7 3972.37 3971.6 3429.62 3164.08 5658.19 3001.65 2869.39 2680.53 2661.31 5000.03
threshold=380.87600000000003 357.27500000000003 0.50340000000000018 63.765000000000015 -2.2953499999999978 0 40.795000000000009 112.72000000000003 -3.5294499999999975 111.575 90.100000000000009 0.20110000000000003 -2.5278999999999967 2.6639200000000014 29.190000000000005 159.72100000000003 121.1845 45.135000000000005 324.41850000000005 180.93650000000002 0.24950000000000003 220.44500000000002 0.33650000000000008 2.4355000000000007 -1.3082499999999968 -0.41379999999999978 0.7088000000000001 0.69715000000000005 3.2603000000000022 0.49129999999999996
decision_type=2 2 2 2 2 9 2 2 2 2 2 2 2 2 2 2 2 2 2 2 2 2 2 2 2 2 2 2 2 2
left_child=1 2 6 5 27 -4 10 8 -8 -2 11 -1 -13 14 21 -16 -10 -18 19 20 -19 22 -12 24 -24 -22 -6 -5 29 -7
right_child=9 -3 3 4 26 28 7 -9 16 -11 13 12 -14 -15 15 -17 17 18 -20 -21 25 -23 23 -25 -26 -27 -28 -29 -30 -31
leaf_value=-0.25179776979817287 -1.2416990940769514 1.4249850664138795 0.41991908579918685 -0.020219264924526217 -0.83034399904310696 0.27051988953970513 0.33907624324162805 0.2679440258869103 -1.0679130012790361 -0.2646320157929471 -0.014699259643944411 -0.33606860786676407 1.441638382524252 0.17461419258488725 -0.45419239117763938 -1.4138286190373559 -1.1444154801576034 0.15500079471063108 0.40453137365671304 -1.1154946382982389 -0.58804517053640815 0.26729628182437326 -0.23064384395495441 0.23280901193618775 -1.0486460254367056 0.07657084027710169 -0.22762333704875065 0.72707197348276775 0.394502867575524 -0.17509323244854327
leaf_weight=36 24 25 245 20 40 106 30 42 24 38 208 24 32 151 32 21 23 47 26 35 65 73 78 20 29 23 39 30 53 155
leaf_count=36 24 25 245 20 40 106 30 42 24 38 208 24 32 151 32 21 23 47 26 35 65 73 78 20 29 23 39 30 53 155
internal_value=0.000131588 0.0231483 0.0026176 0.158198 -0.160336 0.231706 -0.102426 -0.280085 -0.364397 -0.642852 -0.0229337 0.31524 0.679764 -0.0737703 -0.155128 -0.834426 -0.451246 -0.383666 -0.294394 -0.401289 -0.216124 -0.0668863 -0.139708 -0.344447 -0.452345 -0.414339 -0.532798 0.428155 0.0692726 0.00588374
internal_weight=1794 1732 1707 688 129 559 1019 315 273 62 704 92 56 612 461 53 243 219 196 170 135 408 335 127 107 88 79 50 314 261
internal_count=1794 1732 1707 688 129 559 1019 315 273 62 704 92 56 612 461 53 243 219 196 170 135 408 335 127 107 88 79 50 314 261
cat_boundaries=0 1
cat_threshold=12
is_linear=0
shrinkage=0.05


Tree=33
num_leaves=31
num_cat=1
split_feature=0 0 6 4 5 7 6 2 6 4 2 3 1 1 5 5 5 4 2 5 0 6 0 4 3 3 2 3 3 6
split_gain=9588.24 18027.3 9903.55 5840.27 10207.5 5987.37 5390.85 4945.91 7104.21 4435.39 10316.8 3304.02 4113.04 5357.71 3799.25 5249.3 4417.91 9083.92 5895.96 5644.66 5341.07 3223.31 3190.41 4926.14 2852.99 3286.12 2514.67 4412.52 3333.67 4096.47
threshold=380.87600000000003 367.90100000000001 0.50340000000000018 63.765000000000015 -2.2953499999999978 0 0.39915000000000006 3.2603000000000022 0.49990000000000007 56.32500000000001 2.5085000000000011 170.941 40.295000000000009 38.715000000000003 -1.737699999999998 -2.6602499999999969 0.49129999999999996 36.900000000000006 -3.5294499999999975 1.0000000180025095e-35 150.95100000000002 0.25020000000000003 109.85600000000001 42.330000000000005 146.87550000000002 118.13200000000001 1.9320500000000005 218.02000000000004 196.2225 0.29450000000000004
decision_type=2 2 2 2 2 9 2 2 2 2 2 2 2 2 2 2 2 2 2 2 2 2 2 2 2 2 2 2 2 2
left_child=1 2 7 5 -5 -4 -2 8 11 10 -10 12 13 14 15 -1 18 -18 -16 -20 -19 -9 -14 -24 25 -6 28 -28 -13 -30
right_child=6 -3 3 4 24 -7 -8 21 9 -11 -12 26 22 -15 16 -17 17 20 19 -21 -22 -23 23 -25 -26 -27 27 -29 29 -31
leaf_value=-0.27355089588090781 -0.27703634471428107 1.5145584189891816 0.39899113813002057 0.40674771182239056 -0.6038760092109442 0.065808937195061507 -1.2621649923778717 -0.11371622800827026 0.20273730844259263 -0.95124159008264542 -1.1880911535024643 0.22989884854700324 -0.34489678854122757 -0.86213409546161857 0.25650570193926492 0.63937391591889248 -0.44680361272050784 -0.019689061164855956 -0.36116664609526872 -1.0906573857321884 1.0138556990623475 0.54965540107260358 0.98337629740791666 -0.029678353986569813 -0.92314901440231889 0.21312697052955631 -0.070868651982810768 0.58442653891991592 0.092031147361368595 -0.35916742970411847
leaf_weight=32 41 20 247 50 32 314 21 30 40 38 20 78 20 31 30 31 52 25 135 33 25 47 21 28 27 20 54 49 92 111
leaf_count=32 41 20 247 50 32 314 21 30 40 38 20 78 20 31 30 31 52 25 135 33 25 47 21 28 27 20 54 49 92 111
internal_value=0.000242044 0.0221121 0.00467699 0.151034 -0.152319 0.220789 -0.610709 -0.0941357 -0.125533 -0.528566 -0.260872 -0.0789014 -0.168836 -0.2312 -0.177319 0.175666 -0.251445 0.0158861 -0.389162 -0.504459 0.497083 0.291199 0.187275 0.404488 -0.506158 -0.289644 0.0295349 0.240874 -0.047931 -0.154683
internal_weight=1794 1732 1712 690 129 561 62 1022 945 98 60 847 463 394 363 63 300 102 198 168 50 77 69 49 79 52 384 103 281 203
internal_count=1794 1732 1712 690 129 561 62 1022 945 98 60 847 463 394 363 63 300 102 198 168 50 77 69 49 79 52 384 103 281 203
cat_boundaries=0 1
cat_threshold=12
is_linear=0
shrinkage=0.05


Tree=34
num_leaves=31
num_cat=1
split_feature=0 0 6 6 0 4 1 3 2 7 2 0 6 0 3 6 1 0 3 2 3 6 5 1 6 1 0 6 0 1
split_gain=8657.25 16368.6 9185.14 8331.06 6830.08 6595.25 7388.81 5037.62 5027.65 6753.55 10394.2 11745 6482.81 5893.9 5405.34 4512.17 5882.43 4786.61 4276.25 5571.61 4262.93 4095.31 4094.84 5161.03 3806.93 3607.69 3525.38 7258.24 2985.21 5823.9
threshold=380.87600000000003 357.27500000000003 0.67400000000000015 0.6666835000000001 140.62150000000003 40.795000000000009 68.915000000000006 111.575 3.2603000000000022 0 2.4166000000000007 201.81150000000002 0.49250000000000005 187.6575 218.02000000000004 0.82050000000000012 18.650000000000002 187.6575 180.15750000000003 -3.5294499999999975 156.24700000000001 0.40435000000000004 5.1160500000000058 18.650000000000002 0.25020000000000003 34.820000000000007 324.41850000000005 0.11950000000000001 180.93650000000002 48.735000000000007
decision_type=2 2 2 2 2 2 2 2 2 9 2 2 2 2 2 2 2 2 2 2 2 2 2 2 2 2 2 2 2 2
left_child=1 2 3 5 -4 6 8 -2 9 10 20 14 21 22 -12 17 -17 -6 19 -7 -1 -11 23 -14 -10 -26 27 -21 29 -29
right_child=7 -3 4 -5 15 18 -8 -9 24 12 11 -13 13 -15 -16 16 -18 -19 -20 26 -22 -23 -24 -25 25 -27 -28 28 -30 -31
leaf_value=-1.4695328920707107 -1.1472911794980367 1.2912707309722902 0.38564651618060131 -0.87442452840266682 -0.15473363257944583 0.28409382056545568 0.95828178297905697 -0.22199391471712213 -0.10803041734247623 0.020130013704215022 -0.10248962201969286 -1.1396756086660469 0.96768245200316105 0.98535206367572159 0.58021338952657497 -0.94927091994881629 1.2368847645585118e-05 0.46457429963808794 0.15527835856191816 0.47136664927005772 -0.52713725358247765 -0.50230396709271841 -0.41602219993417916 0.091320476374988052 1.1310997295379639 0.31825825291967325 0.06609271429479123 -0.54312613763497219 -0.92028891123258161 0.32451706725088036
leaf_weight=20 24 25 233 31 60 37 21 38 30 351 113 23 24 30 39 25 47 65 64 20 30 42 22 56 20 43 40 160 39 22
leaf_count=20 24 25 233 31 60 37 21 38 30 351 113 23 24 30 39 25 47 65 64 20 30 42 22 56 20 43 40 160 39 22
internal_value=0.000359484 0.0211407 0.0025389 -0.0647642 0.202413 -0.0446201 0.0318693 -0.580174 0.00879138 -0.0342067 -0.256895 -0.0866603 0.0648883 0.369291 0.0726776 -0.014304 -0.3296 0.167306 -0.217622 -0.292672 -0.904096 -0.0357026 0.188096 0.354229 0.35555 0.576303 -0.368616 -0.440767 -0.523313 -0.438246
internal_weight=1794 1732 1707 1277 430 1246 864 62 843 750 225 175 525 132 152 197 72 125 382 318 50 393 102 80 93 63 281 241 221 182
internal_count=1794 1732 1707 1277 430 1246 864 62 843 750 225 175 525 132 152 197 72 125 382 318 50 393 102 80 93 63 281 241 221 182
cat_boundaries=0 1
cat_threshold=16
is_linear=0
shrinkage=0.05


Tree=35
num_leaves=31
num_cat=0
split_feature=2 6 6 0 0 4 1 0 1 6 3 4 2 6 6 1 4 3 5 5 2 0 6 3 2 2 0 6 4 4
split_gain=8095.13 8697.43 8438.75 6121.39 15621.4 5952.21 6668.4 5107.49 4547.68 8954.31 10267.8 5012.48 4754.25 6207.31 7108.44 7263.63 5288.4 5102.69 4018.81 7127.31 5521.89 3957.87 5143.66 3859.31 5028.38 3623.6 3181.65 6550.56 2965.82 4961.35
threshold=6.510650000000008 0.67400000000000015 0.6666835000000001 394.09500000000008 357.27500000000003 40.795000000000009 68.915000000000006 140.62150000000003 1.0000000180025095e-35 0.49640000000000006 243.09049999999999 1.0000000180025095e-35 2.6639200000000014 0.20110000000000003 0.59995000000000009 29.190000000000005 29.070000000000004 152.94500000000002 0.77870000000000017 3.4150000000000014 1.9320500000000005 187.6575 0.84850000000000014 180.15750000000003 -3.5294499999999975 2.4166000000000007 324.41850000000005 0.11950000000000001 29.070000000000004 38.880000000000003
decision_type=2 2 2 2 2 2 2 2 2 2 2 2 2 2 2 2 2 2 2 2 2 2 2 2 2 2 2 2 2 2
left_child=1 2 3 4 5 6 8 28 9 18 -11 -10 13 -13 15 16 17 -15 -1 -20 -21 25 -23 24 -7 -9 27 -26 -3 -30
right_child=-2 7 -4 -5 -6 23 -8 21 11 10 -12 12 -14 14 -16 -17 -18 -19 19 20 -22 22 -24 -25 26 -27 -28 -29 29 -31
leaf_value=-0.40860113094306805 -0.87549930169032175 0.14944011215516861 -0.84026663716543804 -0.87727887531121584 1.1732473545604283 0.26988912836925405 0.91036769172975007 -0.76012656021377323 0.51493144876816699 1.1680723193215161 -0.1340987374385198 0.16968117589489198 0.091340635449969204 -1.1093532127993446 0.38661346991856893 -0.90002619214966662 -0.012044204993450896 -0.26927596939837234 0.81320213906226613 -0.16751824215632574 0.66567062834898638 0.47525155638178734 -0.22459893237170014 0.14751445492729545 0.44779831647872925 -0.038003746458184974 0.062788095399737356 -0.49714692806471056 0.95199396752498378 0.30976580022197026
leaf_weight=44 26 94 33 21 27 37 21 23 34 41 24 78 187 28 30 61 94 51 31 116 24 73 41 64 20 71 40 221 44 95
leaf_count=44 26 94 33 21 27 37 21 23 34 41 24 78 187 28 30 61 94 51 31 116 24 73 41 64 20 71 40 221 44 95
internal_value=0.00034151 0.0132215 -0.050709 -0.0305734 -0.0166058 -0.0423891 0.0302758 0.205593 0.00835181 0.173026 0.687271 -0.0735467 -0.11137 -0.222208 -0.337994 -0.430892 -0.265475 -0.567025 0.0175572 0.127212 -0.0246859 0.0254982 0.223551 -0.206741 -0.278038 -0.214693 -0.350185 -0.418728 0.366364 0.513061
internal_weight=1794 1768 1327 1294 1273 1246 864 441 843 280 65 563 529 342 264 234 173 79 215 171 140 208 114 382 318 94 281 241 233 139
internal_count=1794 1768 1327 1294 1273 1246 864 441 843 280 65 563 529 342 264 234 173 79 215 171 140 208 114 382 318 94 281 241 233 139
is_linear=0
shrinkage=0.05


Tree=36
num_leaves=31
num_cat=0
split_feature=2 6 6 2 2 3 0 3 6 4 6 4 2 5 6 0 2 4 2 6 4 4 5 6 3 6 2 4 5 5
split_gain=7305.86 7849.43 7615.97 5855.46 8654.56 4814.35 4609.51 4560.17 4414.33 5580.76 4628.12 5396.22 7059.92 4014.62 3648.26 4187.44 3938.16 3114.55 3563.8 2917.88 2676.65 4477.62 4834.07 4686.7 3519.87 2794.11 2512.88 2281.39 3316.45 7381.47
